nep4_zbl 4 Pd Cu Ni P 
zbl 0.9 1.8
cutoff 6 4 127 42
n_max 8 8
basis_size 8 8
l_max 4 2 0
ANN 50 0
  9.6260190e-01
  2.0776005e+00
 -8.2196045e-01
 -5.7612473e-01
 -1.3540542e+00
  6.8943702e-02
 -4.4099355e-01
 -6.4188939e-01
 -3.5204679e-01
 -4.5641673e-01
  2.0627396e-02
  2.2768398e-01
 -6.6218019e-01
  7.0359886e-01
  6.2614328e-01
  6.3223439e-01
  1.2238491e+00
  1.3034965e+00
  1.5306883e-01
 -8.5062182e-01
  1.2816456e-01
 -1.3685067e-01
 -7.8859478e-02
 -6.6495025e-01
 -1.5317665e+00
  4.5983705e-01
  1.7318007e-01
 -1.3346598e-01
 -9.5359981e-01
  1.2959112e-01
 -3.1076008e-01
  3.0774593e-02
 -2.9059120e-02
 -3.4856167e-01
  8.3124483e-01
  9.7084977e-02
 -2.0911685e-01
  2.8751295e-02
  1.7178921e-01
  4.9462646e-01
  1.1766024e-01
  5.9681588e-01
 -1.6108078e-04
  1.0383096e+00
 -1.6812799e-02
 -2.3523316e-02
  1.1524059e-01
 -2.1164194e-02
 -3.0979523e-01
 -9.7785905e-02
  1.9184801e-03
  7.1070606e-01
  3.7064560e-02
 -7.3361419e-02
 -8.6228520e-01
 -1.4473867e+00
  9.9231273e-01
  1.0634096e+00
  7.4892817e-03
  1.2913306e+00
  4.4047308e-01
  2.3175790e+00
  2.2275989e+00
  7.2294116e-02
 -6.9369352e-01
 -3.0057821e-02
  1.1402574e+00
 -3.3610445e-02
 -1.0444977e-01
 -1.2049845e-02
 -1.8356661e-01
 -3.4415983e-02
  3.3008391e-01
  2.4452816e-01
 -1.0941389e-01
  2.0609955e-01
  8.1670709e-02
  2.2528742e-02
  3.3983126e-01
 -1.1574125e-02
  1.2922212e-01
  1.6249906e-01
  6.2494617e-02
 -3.3263683e-01
  1.3319004e+00
 -3.7368096e-02
  5.9267329e-03
  8.6837001e-02
  5.3252637e-02
  1.6025649e-02
  1.1832997e+00
 -4.5205228e-02
  3.3757749e-01
 -1.3934144e-01
  1.1964219e-01
  8.2907778e-01
 -1.6067791e-01
  1.1562981e-03
 -1.2442824e-01
  4.2004514e-01
 -1.0030019e-01
 -1.3576104e-02
  6.1789107e-01
  1.1279932e-01
 -1.6492672e-01
  2.4765806e-02
  3.1381797e-03
  1.2939851e-02
  1.1977705e-01
  2.9135890e+00
 -3.8214142e+00
 -1.5649124e+00
  2.1823063e+00
  2.5719565e-01
 -2.7362721e+00
 -2.1359782e+00
  1.8038478e-02
  7.0460331e-01
  6.3851988e-01
  8.2688820e-01
 -8.9451391e-01
  9.7656790e-03
 -7.4533679e-02
  9.1509875e-03
  1.5291641e+00
  1.1667138e-01
  1.3947161e-01
 -8.0484563e-01
  9.7944897e-01
  5.8690179e-02
  1.1014479e-01
  7.2804070e-01
  3.0151580e-02
 -4.6753984e-02
  4.2067373e-01
  8.5687697e-01
 -2.2105634e-02
  6.5132910e-01
 -2.1808628e-02
  4.1443404e-02
  4.8487765e-01
 -1.4563984e-01
  6.0587561e-01
  8.3250403e-02
  3.2645607e-01
  4.0769613e-01
  1.6022438e-01
  1.7097840e-01
  7.2652388e-01
 -5.4918252e-02
  3.9325869e-03
 -7.0436426e-02
  1.2886810e-01
  4.2449046e-02
 -8.7207057e-02
  1.1902174e-01
 -6.1099589e-01
  4.7833404e-01
 -1.4839324e-01
  2.7248610e-02
 -3.4691621e-02
 -1.3845545e-02
 -5.4486733e-02
  2.4604520e-01
 -3.1396133e-01
  6.1544385e-02
 -2.9695150e-02
  9.2037857e-02
 -5.6654952e-02
 -5.9142971e-01
 -4.4977102e-02
 -1.6727643e-01
  6.5124564e-02
 -2.8223700e-03
 -1.6198507e-02
 -3.3635754e-02
 -8.2709953e-02
 -6.8997785e-02
 -5.0639200e-01
  1.2701916e+00
 -1.3288294e-03
  7.7903229e-03
  9.8650716e-02
  1.1594439e+00
 -9.1240644e-02
 -1.7867625e-02
 -3.5942741e-02
 -1.9686176e-02
  7.4941799e-02
 -5.9016511e-02
 -2.8530182e-02
 -4.3814208e-02
 -1.8556910e-02
 -3.9010644e-03
 -1.7267413e-02
  3.0417241e-02
 -1.3468677e-01
 -3.1894553e-02
 -6.9815740e-02
  9.9314265e-02
  6.2221166e-02
  3.3747185e-02
 -2.5047252e-02
 -3.0484786e-02
 -3.3039931e-02
 -2.7978646e-02
  3.7865955e-02
  2.6736446e-02
 -2.4487332e-02
 -1.5977576e-01
  5.6138270e-02
  6.8560794e-02
 -4.7508452e-02
 -2.0400703e-01
 -3.9287090e-02
  9.1150869e-03
  4.4990987e-01
 -1.2949932e+00
  4.0206742e-01
  1.9448093e+00
  4.4014174e-02
  1.0811436e+00
  7.4038368e-01
  2.2057080e+00
  1.6487703e-02
 -1.6488730e+00
 -9.1778535e-01
 -1.2337319e-02
  8.3305979e-01
  9.6460357e-02
  1.6775736e-01
  5.4402333e-01
  8.8821286e-01
  3.3945498e-01
 -5.9499498e-03
 -1.2850206e-02
 -1.4118982e-02
 -8.1590819e-01
 -4.6534523e-01
  9.6842267e-02
  5.1101172e-01
  2.6878027e-02
  3.5998926e-02
 -1.6928010e-02
 -5.0318933e-01
 -3.1933270e-03
  9.9451452e-01
 -1.0855140e-01
  8.1110442e-01
  6.3382095e-01
 -6.0349369e-01
  1.3125013e-01
 -4.5385707e-02
 -1.2554561e-01
  7.9155594e-01
 -6.0212874e-01
  2.6416954e-01
  1.3020672e+00
  3.0313940e-03
  4.2093050e-02
  3.3148926e-01
 -8.0683213e-03
 -2.2866696e-02
 -1.5821209e-02
 -2.1241453e-01
  1.4843504e-01
 -5.1224761e-02
 -2.4508545e-03
  9.0903062e-03
 -1.0257600e-02
  3.0764421e-02
  1.1504364e-01
 -7.4661798e-03
  2.3429204e-02
  2.0499318e-03
  9.6536711e-02
  2.0429026e-01
 -6.4558871e-02
 -8.2182117e-02
 -4.7518596e-02
  1.7247241e-02
 -8.9982741e-02
  1.5954981e-02
  4.2747743e-02
  6.1612286e-02
  9.8827761e-04
 -3.5959512e-02
  2.1643795e-02
 -3.0216413e-02
  1.3541403e-01
  2.5277449e-02
 -4.3442044e-02
  1.6483108e-02
  5.2097559e-02
 -1.4051871e-02
  3.7901975e-02
  1.7005316e-03
 -6.9866334e-03
 -6.7667484e-02
 -5.4568708e-02
  1.0814320e-01
 -3.9156076e-02
  4.8796430e-02
  1.9468557e-02
 -4.4863459e-02
 -3.2681707e-02
  2.3758924e-02
 -8.3966618e-03
  1.0627403e-02
 -1.7668153e-01
  8.2261145e-02
  7.5986125e-02
  1.1346100e-01
 -6.2725884e-03
  7.4508628e-03
  1.0841893e-01
 -3.9317872e-02
  1.2743396e-01
  5.1153470e-02
  7.6948404e-02
  8.1823794e-03
  7.5021669e-02
 -2.3156539e-01
 -2.9628279e-02
 -1.9207392e-02
  1.8899354e-01
  6.8686378e-01
  4.7098473e-03
  3.8134047e-01
 -4.3574147e-02
 -7.0414178e-02
 -7.6112020e-01
  2.0190117e-01
 -9.1112144e-02
  3.4944126e-03
 -1.5186323e-01
 -8.1805408e-02
 -2.3845816e-03
  3.4524449e-03
 -1.0410889e-01
 -5.9596371e-02
 -3.2202802e-03
  6.9758758e-02
 -4.7544159e-02
 -1.8813837e-01
 -1.5623473e-01
  4.0657852e-02
 -1.2042267e-01
 -8.0134138e-02
 -7.6590374e-02
  3.6441565e-02
 -6.5008484e-02
  6.8887551e-03
 -3.3075869e-02
 -4.6455208e-04
 -6.3446559e-02
 -1.3094765e-01
  1.2397212e-01
 -2.9275805e-02
 -2.2200745e-02
 -6.5575302e-02
 -1.8430550e-02
 -6.6921122e-02
 -8.5455023e-02
 -7.7118807e-02
 -1.6453010e-01
  2.5140142e-02
  9.4951749e-02
  3.0952103e-02
  2.0903783e-02
  8.4473453e-02
  5.0482534e-02
 -8.4196985e-02
  1.7623115e-02
 -4.0502861e-02
 -2.5064403e-01
 -7.6850191e-02
 -1.0818809e-02
  6.1665166e-02
  1.7561469e-03
  4.1568179e-02
  2.2171851e-02
  1.3203679e-01
  6.5314695e-02
  3.9212253e-02
 -7.1182743e-02
  6.1887603e-02
  8.4887877e-02
 -1.1624894e-01
 -1.6361436e-02
 -2.1552169e-03
  4.8381671e-02
 -4.4845097e-02
 -8.4838159e-03
 -6.6539356e-03
  2.0512657e-02
 -6.3313497e-03
  1.1806179e-01
  6.1955035e-02
 -3.6174677e-02
  5.6544684e-02
  4.6948377e-02
  4.0113334e-02
  1.2910202e-01
  2.7847914e-02
  1.4338907e-02
 -6.2234689e-02
 -2.1953069e-02
  5.9669070e-02
 -1.4851710e-02
  2.6992319e-02
 -1.0288210e-01
  3.2046515e-02
  7.1727522e-03
 -1.2710668e-02
  3.3672713e-02
  1.3226607e-01
  1.8798755e-02
  2.7815767e-02
  2.9985033e-02
  3.8866743e-02
 -1.1855515e-02
 -8.5330926e-02
  8.2968444e-02
  2.2288676e-02
 -3.7345707e-02
 -8.3531504e-03
  6.0298994e-02
 -3.5636667e-02
  5.1323604e-03
 -8.2756139e-02
  1.8303042e-02
 -9.6521431e-01
 -1.8233371e+00
  1.3698367e+00
  3.8929099e-01
 -4.5665738e-01
 -4.9530935e+00
 -1.3469101e+00
 -2.2371747e+00
 -1.9555104e+00
  1.4099505e-02
  3.3538726e-01
 -2.5591978e-01
  4.8109922e-01
 -1.1265709e+00
  8.3446437e-01
  4.1843927e-03
 -1.2733126e-01
  8.2097873e-03
  1.2896393e-01
 -6.5275356e-02
  1.7917468e-01
 -7.7393603e-01
  3.1717941e-01
  1.4088595e-01
  4.3000039e-01
  7.6501286e-01
 -2.0578086e-01
 -1.8897535e-01
 -2.5343792e+00
 -5.3064059e-02
 -9.5829153e-01
  5.1308546e-02
  2.6986909e-01
  5.1082033e-01
 -1.2405152e-02
 -1.2526947e-01
  1.3450861e-01
 -5.7387076e-02
  9.1980255e-01
 -3.8355156e-03
  5.8329362e-01
  7.9638451e-01
 -7.2222501e-02
  1.6894369e-01
  1.4139950e-02
  8.1564203e-02
  1.9623068e-01
 -1.3097635e-01
  1.2615706e-01
 -9.4846249e-02
 -1.3344785e-03
  4.5706980e-02
  7.2321050e-02
 -8.4191836e-02
  2.9113200e-01
  1.2903217e+00
  1.5108078e+00
  7.1140926e-04
 -5.9232944e-01
 -8.1434959e-01
 -1.8333521e+00
 -2.5424805e+00
 -7.1611112e-01
 -8.1610300e-02
  3.8318345e-01
  5.5887312e-01
  3.1813419e-01
  4.3977988e-01
  3.4507722e-01
 -3.7577406e-02
  1.0456960e+00
  8.4536746e-02
 -3.3036429e-01
  6.2513806e-02
  1.1305531e-01
 -2.1167392e-01
  1.4793338e-01
  3.4372738e-01
 -1.3038509e-02
 -8.5092157e-02
  7.9092726e-02
 -2.3370393e-01
 -8.9294113e-02
  7.2496521e-01
 -2.7880397e-01
 -4.4969965e-02
  6.3033611e-01
  5.5417143e-02
  7.5824872e-02
  3.9685756e-02
  2.5894564e-01
 -8.8069990e-02
  3.7357000e-01
  5.2535152e-01
  8.8717021e-02
  2.1716930e-01
  1.8214583e-02
  9.2866337e-01
  1.8406998e-01
  3.1642993e-03
 -2.0591922e-02
 -4.7021348e-02
  6.3142441e-02
  8.2614115e-03
  3.2129907e-03
  9.0075620e-03
 -1.3779522e-01
 -1.4610970e-02
  2.2761144e-02
  1.2076781e-01
  1.1190066e-01
  3.0811263e-02
 -1.6618127e-01
 -8.2095023e-03
  6.2089421e-02
 -9.8294271e-03
 -1.5680508e-01
  2.3630019e-02
 -1.7068880e-02
  4.5119014e-02
 -5.4622445e-02
 -9.0012476e-02
  3.4405682e-03
  1.9315615e-02
 -6.0122688e-03
 -6.9737900e-03
  3.6036886e-02
 -1.0617117e-01
  3.5647355e-02
  3.6733132e-02
 -1.0963526e-02
 -3.4707028e-01
 -2.3853563e-02
 -4.2393897e-02
  4.5127891e-02
  1.0210568e-01
 -1.0003769e-01
  2.2920425e-01
 -6.3427769e-02
 -5.0731756e-02
 -6.9787286e-02
 -6.7710509e-03
  1.2131497e-01
  5.7175610e-02
 -1.8517494e-02
  1.6430127e-02
  7.0826739e-02
  4.9057398e-02
  5.4189939e-02
 -8.4136594e-03
  8.8008906e-05
  4.9986709e-02
 -6.2477387e-02
  4.2583104e-02
  9.7471187e-03
 -1.1056293e-02
  6.5255918e-02
 -1.2979005e-01
  3.5843765e-03
 -3.3893105e-02
 -6.0873739e-03
  6.1215423e-03
  1.7790067e+00
  3.9070139e+00
  2.5024161e+00
  1.5037445e+00
 -1.0825454e+00
 -1.1115208e+00
 -2.0367368e-01
  9.8358840e-01
 -1.3549118e-01
 -1.4500466e-01
  3.7541234e-01
 -1.0170485e-02
  3.9565089e-01
 -4.0248248e-01
  6.5727717e-01
  2.0854425e-02
  6.3377690e-01
  1.4476986e+00
 -1.2652447e+00
  6.6503048e-01
  1.3338797e-01
 -1.4790711e-01
 -4.2070350e-01
 -6.1392747e-03
  6.9954075e-02
 -3.3082273e-02
  3.0641051e-02
 -5.2768290e-01
  1.0627175e-01
 -1.4625536e-01
  1.0703409e-02
 -2.2712475e-01
  1.7321183e-01
 -5.0026444e-03
 -2.6175728e-01
  1.5457353e-01
 -1.9007718e-02
 -2.1317101e-03
  4.4348457e-01
  6.2750585e-02
  6.4753711e-01
  8.4948398e-02
  6.7811995e-03
  5.8145887e-01
  9.7446793e-01
 -1.8403659e-02
 -1.4243279e-02
 -1.8553445e-03
  1.7317310e-02
 -3.2867197e-02
 -5.2387722e-02
  1.4993767e-01
  1.1431322e-01
  5.9072420e-02
  2.7157106e-02
 -1.7770695e-02
 -3.2629707e-01
 -9.9022519e-03
 -1.3842696e-01
  1.1552301e-02
 -2.7537758e-02
  4.0260881e-01
  7.2621413e-02
  1.0639962e-02
 -1.6417135e-02
  2.7564734e-02
 -5.9419438e-02
  8.2637660e-02
 -2.0358939e-02
 -1.5692621e-02
 -3.1092783e-02
 -2.8268290e-01
  1.0134866e-02
 -6.6798842e-03
 -5.7354788e-03
 -3.7049808e-02
 -3.7013791e-03
 -3.6972698e-02
 -7.3966406e-02
 -2.4998963e-02
 -1.2476409e-02
 -8.8668704e-02
 -1.8221941e-02
 -1.9169280e-01
 -4.0415796e-03
  5.3202812e-02
 -4.1388031e-02
 -2.2673050e-01
 -4.3732971e-03
 -7.9475008e-03
 -3.6880083e-02
  2.0436144e-02
 -2.5017425e-01
 -9.5636837e-02
 -2.3605863e-02
 -1.3303006e-01
  5.9827488e-02
  7.6108590e-02
  1.5443349e-01
 -2.7503407e-02
 -1.3916078e-02
 -1.6988704e-02
 -8.2350776e-02
 -2.1897476e-02
  7.3620290e-02
 -8.5397154e-02
 -1.1635099e-01
 -2.1204678e-04
  4.9599651e-01
  8.2206267e-01
  8.4725624e-01
  8.8458747e-01
 -4.9194238e-01
  2.8545964e-01
 -2.4794444e-01
 -5.4149550e-01
  4.2098570e-01
  8.9636877e-02
  8.8232774e-03
  5.4748678e-01
  6.3444507e-01
  1.0476821e-01
  5.3217381e-01
  5.5974303e-03
  8.1176087e-02
 -3.6254656e-02
  3.2220307e-01
  1.2643034e+00
  5.2851987e-01
  1.3690704e-01
  1.1139579e+00
  1.0887338e+00
  9.6928246e-02
  3.4414583e-01
 -1.8563884e-03
 -2.5513104e-01
 -1.0829605e+00
  2.4585290e-01
  2.8676948e-01
  9.5249005e-02
  4.9155724e-01
  7.6536693e-02
  3.1691026e-02
 -2.1336621e-02
 -8.3848406e-03
 -1.0759291e-01
  4.9597782e-01
  4.6257824e-02
  8.1481743e-01
  4.9364975e-01
  1.9587815e-02
  3.6546493e-01
  4.1385103e-02
  1.9009932e-03
 -8.3710946e-02
 -3.7707742e-03
  9.7270913e-02
 -2.1805707e-01
 -1.7243775e-02
  9.0267003e-02
  7.2126813e-02
  4.0621940e-02
 -2.4058890e-02
  8.8511810e-02
 -1.4167937e-02
  3.3625662e-02
  1.6610285e-03
 -4.9101457e-02
  5.2146960e-02
  1.9664489e-01
  2.3262711e-02
  2.2702731e-01
  4.0995784e-02
 -1.2515865e-02
 -1.9288948e-02
 -2.0422435e-03
 -5.4015284e-03
  4.3669816e-02
 -1.2023192e-01
 -3.3203255e-02
  3.2401122e-02
  8.0218621e-02
 -5.6178395e-02
  4.6809249e-02
 -9.5836259e-03
  5.5858314e-02
  1.6272694e-02
  2.2160059e-01
 -5.6684390e-03
  1.6176119e-01
  4.9873807e-02
  1.1533801e-02
 -4.9642473e-02
  8.4795766e-02
 -4.4087388e-02
 -1.8906562e-02
 -2.5240574e-02
  2.6344348e-02
  3.1752728e-02
 -2.3421852e-02
  4.9505740e-02
 -7.0060387e-02
  1.7858457e-02
 -6.7213243e-03
 -7.2831087e-02
  6.3141979e-02
  1.4018692e-01
 -3.2894149e-02
 -3.3637777e-02
  8.8301245e-03
 -1.2526617e-02
 -2.6807543e-03
  1.5954927e-02
 -1.9991042e-02
  4.8237752e-02
  8.0801472e-02
 -2.9566380e-01
 -2.1004825e+00
 -1.3998488e+00
 -2.3090127e-01
 -1.0890526e-01
  2.4435626e-01
  7.2479683e-01
 -9.9315658e-02
  7.4843758e-01
 -1.9644983e-02
 -8.2893901e-02
 -8.6294577e-02
 -1.1967101e-01
 -3.0305719e-02
  2.8471625e-04
  3.1742528e-02
 -3.8369077e-01
 -4.5789711e-02
  1.2607449e-01
  4.5800060e-01
  1.4943727e-02
 -1.3424724e+00
 -7.5609416e-01
 -1.3257000e-01
 -1.1393605e-02
 -1.1102711e-03
 -6.6725063e-01
  4.6669286e-01
 -1.1730342e+00
 -1.9022765e-02
 -2.7038029e-01
  4.3497555e-02
 -5.4618055e-01
 -6.7739114e-03
 -6.5578505e-02
 -1.1422188e-01
 -1.3627924e-01
 -6.0072038e-03
 -2.9768470e-01
 -4.4753548e-02
 -2.7511397e-01
 -7.5346971e-01
  5.2555777e-02
 -1.3461806e-01
 -3.0256507e-01
  1.1569727e-02
  1.1503476e-02
  5.7754099e-02
 -2.9983354e-01
  6.3210592e-02
  8.7145060e-02
 -3.6347681e-01
 -3.2738182e-01
 -1.4454166e-02
  3.1285241e-01
 -8.1031574e-03
 -7.8184569e-01
 -1.9198403e-01
 -2.9763753e-02
 -7.3842551e-03
  1.0759971e+00
 -1.1700765e+00
  1.2408845e+00
 -1.2538186e-01
 -1.2886056e-01
 -1.8048383e-01
  9.4142020e-02
 -7.2966337e-01
 -2.5328320e-01
 -2.6151983e-02
 -2.6615767e-02
  2.6998069e-02
  3.6275409e-02
  5.3819424e-01
 -1.0662457e-02
  2.9398224e-01
 -4.4843215e-01
  9.9444747e-02
 -6.9069676e-02
 -3.6781019e-01
 -2.5292039e-01
 -2.1424522e+00
 -5.2841019e-02
 -2.5984707e-01
 -2.2730030e-01
 -1.0533388e+00
 -3.3322752e-02
 -1.2420683e-01
 -9.2238289e-01
 -1.0762393e-01
  2.2617118e-01
 -1.6321927e-01
 -4.5990691e-02
  2.8538249e-02
  7.5715199e-02
  3.0577723e-02
 -7.9632849e-02
  1.1184950e-02
 -3.3898851e-01
  3.2350111e-01
  6.6105396e-02
 -2.2094846e-02
  3.1630465e-01
 -8.4987335e-02
  2.2296045e-02
 -4.3138027e-02
 -5.8371641e-02
 -1.6962430e-02
  1.0088805e-01
 -3.4420792e-02
  9.3199164e-01
 -2.8132461e-02
  9.9868494e-01
 -2.8589436e-01
 -1.0429763e+00
 -3.3448479e-01
 -2.8667501e-01
  7.7222912e-03
  2.4369140e-01
  6.3262415e-01
  6.6128612e-01
  1.2356468e-01
  9.1609222e-01
  5.7976864e-02
  3.7020880e-01
 -1.4263802e-03
  8.2667522e-02
  2.3618995e-01
  3.9258178e-02
  2.9879782e-01
  1.5882733e-01
  5.0634760e-02
 -6.3503250e-02
  1.4673792e-01
  2.4239370e-04
 -6.1906779e-01
  2.2047693e-02
  9.5994018e-02
 -2.7798394e-02
 -3.1769597e-03
  9.4870394e-01
  2.4673468e-01
  1.8003623e-01
  2.1629892e-01
  4.1023329e-01
  3.2797670e-01
  1.2567846e-01
  2.3624790e-01
  7.9000190e-02
  8.4830976e-01
  5.5302158e-02
  3.8005388e-01
  1.7562192e-02
  5.5825006e-02
  1.4669676e-01
 -3.9163191e-02
  4.1512959e-02
  7.4525230e-02
  9.6651152e-02
  1.0043613e-02
  7.0675895e-02
  4.3557800e-02
  1.4488745e-03
  3.5650082e-02
 -7.9158293e-03
 -1.0976323e-01
  3.3976723e-02
  1.3810600e-01
 -9.1832131e-02
  7.1908377e-02
 -4.4442724e-02
 -2.7177874e-03
  6.9188297e-02
  1.9820375e-02
  3.3092424e-01
 -1.0049409e-01
  2.2260854e-03
  7.5475998e-02
  6.3671045e-02
 -5.4586433e-02
 -4.9808748e-02
  3.3335622e-02
 -2.7807837e-03
 -3.0568173e-02
  1.0564756e-01
 -6.4854361e-02
  3.9641983e-03
 -4.2128097e-02
 -6.4868354e-03
  8.9830518e-02
  6.5274075e-02
  8.0327526e-02
  1.4186532e-02
 -3.0577412e-02
  7.6660745e-02
  8.3148316e-02
 -5.7828794e-03
 -8.0173202e-02
  3.7216155e-03
  8.5818365e-02
  1.2698743e-01
  2.8915863e-02
  8.7498017e-03
 -3.0091159e-02
 -1.7374147e-02
  2.9309010e-02
  5.7802550e-02
  1.0797643e-01
 -1.4557430e-01
 -1.6394842e-01
  1.7090961e-02
  3.3416778e-02
  2.8976474e-02
  1.0438112e-01
 -1.6543709e-02
  8.3687328e-02
 -6.6851422e-02
  3.6877120e-01
 -7.0890531e-02
 -4.9234723e-04
 -1.4834490e-01
 -1.8041243e-03
  1.5846873e-02
 -5.5911374e-01
  1.0107268e+00
 -6.5097228e-02
 -2.4747416e-01
 -1.5857059e-01
  2.6188750e-02
 -5.4854929e-02
  3.4988809e-02
 -1.8036997e-02
 -2.9027170e-02
  2.7664727e-02
  5.9212196e-01
  2.9892120e-01
 -8.8921357e-03
  5.1017272e-01
 -2.0868124e-01
 -2.6954825e-03
  7.6575745e-03
  1.5870800e-02
 -5.1578116e-01
 -3.7713751e-01
  1.0792889e-01
  1.0012887e-01
  2.2887271e-02
  3.7595116e-02
  1.4126543e-02
 -9.8654069e-02
 -4.6330902e-01
 -8.9121163e-02
  8.5506089e-02
  1.5439651e-02
 -1.1491008e-01
 -2.7497798e-01
  8.2159117e-03
  2.2175703e-02
  6.0836077e-02
 -4.8148137e-02
  3.3413433e-02
  8.2685605e-02
  1.9590950e-02
 -7.0542380e-02
  1.8320815e-01
 -1.2150233e-01
 -9.2101820e-02
  6.3300535e-02
  8.2964063e-02
  1.8641160e-01
 -3.1963107e-01
 -3.2273760e+00
  6.1183584e-01
 -6.6967195e-01
 -1.2551422e+00
  1.6001576e-01
 -4.3722475e-01
  7.4397451e-01
 -3.0862763e+00
 -1.2436377e-01
  2.2724370e-02
  4.3349512e-02
 -2.0756898e-02
 -5.6977794e-02
  2.4656186e-02
  1.6458593e-02
  1.6918257e-02
  2.2569756e-01
 -9.5933431e-01
  5.1214253e-03
 -3.2214034e-01
 -9.9418348e-01
 -1.7639129e-01
 -1.5712328e-01
 -4.2229518e-03
 -1.9418257e-01
  1.7928226e-02
 -7.7238494e-01
 -7.4623577e-02
  6.3668244e-02
 -1.8566793e+00
 -1.2809556e-02
  3.4080349e-02
  1.8153582e-02
  5.0683189e-02
  6.6060239e-01
 -6.2655658e-01
 -6.5299016e-01
 -2.0199962e-02
 -7.0676255e-01
 -1.1119215e+00
  2.2791284e-01
 -7.5891577e-03
 -1.1519220e-01
 -1.4794655e-01
  3.9624595e-03
 -6.0598990e-03
  5.4600507e-02
  8.7957922e-03
 -4.1567970e-02
  2.2739987e-03
 -6.8181781e-03
  4.2656478e-02
  7.6791622e-02
  4.6279944e-02
  7.7042001e-01
 -6.1858970e-01
  1.3984221e-01
 -6.0901638e-02
  1.6730429e-01
  1.6195261e-01
 -6.9217747e-01
 -4.9452070e-02
  7.6999016e-02
  5.3061396e-03
  5.3649512e-03
  1.4747302e-01
  4.2637298e-01
 -1.7562914e-01
 -2.0287540e+00
  6.8544835e-01
  3.9573234e-02
  1.6328597e-01
  4.3277836e-01
 -1.2004465e-01
  1.7926996e-03
 -3.8590703e-02
 -2.6462838e-02
 -1.4516983e+00
  1.7016657e-02
  8.7438405e-02
  2.5551557e-04
  2.0403633e-01
 -2.3000368e-01
  5.2340467e-02
 -1.2967007e-01
  3.6532857e-02
 -1.8083903e+00
 -1.1383121e-01
 -2.1730976e-02
 -3.8283981e-02
 -4.1387496e-03
 -1.5010308e-01
  6.4688310e-02
  1.5619649e-01
  1.5797742e-02
 -5.9322178e-01
 -3.3188310e-02
 -2.0079587e-02
 -2.4567307e-03
  2.0321650e-02
 -1.3221420e-01
  2.6988005e-02
 -1.7394187e-02
 -1.2866138e-01
  4.1746530e-01
  1.2226288e-01
  1.9294804e-02
  1.1213382e+00
  1.1302029e+00
 -2.4520257e+00
  1.2660397e+00
 -5.6188262e-01
 -1.1536298e-01
 -2.6453450e-01
 -1.4129642e+00
 -2.2741268e+00
 -1.1902442e+00
  1.5102178e+00
  2.0552616e-01
 -4.1417858e-01
  8.3379769e-01
 -1.2463537e+00
 -1.0530861e-01
 -6.2279397e-01
 -4.9640906e-01
  9.2145997e-01
 -7.2306879e-02
  1.3481645e-01
 -1.2896021e-01
  8.5170591e-01
  1.2455215e-01
 -1.4703284e-01
 -8.5480577e-01
 -1.2605955e-01
 -5.9709215e-01
  3.1701633e-01
  5.9535742e-02
  9.0946347e-01
  6.0626054e-03
 -5.8380407e-01
 -1.2559745e-01
  5.4653442e-01
 -6.0164928e-01
 -8.9108777e-01
 -7.2698936e-02
 -1.2224908e+00
  8.3225411e-01
  2.2827279e-02
 -6.7578989e-01
  1.9898716e-02
 -8.5800326e-01
 -2.4262576e-01
 -2.4076339e-02
 -9.0949878e-02
  2.0466736e-01
  6.0529057e-02
 -2.5875989e-02
 -1.0461298e-02
 -1.2670040e+00
 -3.7646455e-01
  2.5220260e-01
  2.2922239e-01
 -5.4325324e-01
 -1.6557375e-02
 -1.7946851e+00
 -2.2126898e-02
  6.6777609e-02
 -1.1398311e+00
  9.2688724e-02
  2.1348497e-02
  2.6783922e-01
 -4.8529457e-02
  2.5355801e-01
 -5.3977940e-02
  4.8708707e-01
 -6.1577056e-02
 -1.1586342e-01
  4.7261629e-02
 -1.3176901e-02
 -4.5677850e-01
 -5.2993512e-01
  1.2571414e-01
 -8.7893113e-02
  1.5478965e-02
  4.9778491e-02
  6.6392565e-01
  7.8592584e-02
  2.7955291e-01
 -1.1282833e+00
  4.5337433e-01
 -2.4768475e-01
 -1.2157665e+00
  2.8256694e-02
  4.3979275e-01
  3.9492358e-02
 -7.0672232e-01
  2.2171576e-02
 -1.1217519e+00
  6.0555506e-02
  8.4601082e-02
 -1.3974587e+00
  5.4813918e-02
 -1.4168594e-02
 -5.2515481e-02
  1.0297778e-01
  3.3522734e-01
 -2.8074503e-01
  2.9207449e-03
 -6.0519040e-02
 -4.7113952e-01
 -1.0288167e-01
  1.1456302e-02
 -1.2307398e-02
 -1.2013575e-01
  2.7040089e-02
  1.0022067e+00
  9.2322111e-02
 -2.1320927e+00
  3.1116143e-01
  1.0383639e+00
  2.6208258e+00
 -1.4992268e-01
 -8.4699094e-01
  1.7044332e+00
  6.6393547e-02
  6.3039446e-01
 -3.9164592e-03
  1.3174357e-01
  5.5346340e-01
 -8.8226998e-01
 -5.5021401e-02
 -9.5031643e-03
  1.5799184e-01
 -9.9531412e-01
 -8.3139393e-04
 -9.2873669e-01
 -3.1458852e-01
 -2.7212766e-01
 -8.4261394e-01
 -1.4590891e-01
 -1.1911057e+00
  1.5830982e-02
 -1.3074235e+00
  1.1943676e+00
 -2.7504009e-01
 -4.5516852e-01
 -7.2078198e-01
 -1.0886441e+00
 -3.4449112e-01
 -1.2775791e+00
 -1.6104962e-01
 -3.7242433e-01
  4.8999044e-01
 -4.1928035e-01
 -5.0199199e-03
 -8.7513894e-01
 -5.3819531e-01
 -2.7467318e-02
 -2.8690785e-01
 -1.2116071e-01
 -2.4865372e-03
  5.7347715e-02
  2.9072836e-02
 -7.3766722e-03
 -4.7030151e-02
  1.0129051e-02
 -1.3257897e-01
 -6.4736292e-02
  5.1591262e-02
  6.2162882e-01
  3.0988860e+00
  2.0877121e-01
 -1.1377361e-01
 -6.0808140e-01
 -1.0716822e+00
 -2.1900091e+00
 -2.1037338e+00
 -9.1090709e-01
 -1.1104500e-01
  9.3450832e-01
  1.8961041e-01
  2.7504593e-02
 -9.5589506e-04
  6.1323866e-02
  9.8566227e-02
  2.2203571e-01
  5.1996600e-02
 -2.5289016e-02
  1.5271406e-01
  7.6474868e-02
 -5.9752303e-01
  1.2583051e-02
  3.1920367e-01
 -4.1329637e-02
 -7.2145915e-01
  4.0598091e-02
 -5.5238062e-01
  1.2859270e-01
  1.0548000e-01
 -1.6250826e-01
  2.4009891e-01
 -4.3493010e-02
 -3.8800959e-04
  1.8316130e-01
  1.3993590e-01
  6.0448557e-01
  1.4854075e-01
  9.2147231e-02
  8.1171207e-02
 -7.2716814e-03
 -4.8570007e-02
  5.3437315e-02
  3.4139103e-01
 -3.2658190e-02
 -7.8836851e-02
  1.4586771e-01
 -5.8974302e-03
  2.7818384e-03
  3.8392246e-03
  2.8018961e-02
  1.6168021e-02
  5.9331771e-02
  2.1297298e-02
 -6.0837042e-01
 -1.7802390e+00
  1.3167764e+00
  2.3616193e-01
  5.4410035e-03
 -2.6226842e-01
  1.9844134e-01
  1.6917480e+00
  5.2284729e-01
  1.9377515e-01
 -1.1446408e-01
 -8.1539696e-01
  2.7926412e-01
  2.4865218e-02
 -1.7296088e-01
  6.4497337e-02
 -1.6565195e-01
 -1.7768209e-01
  1.8224420e-02
 -7.0923948e-01
 -1.4159821e-03
  5.6241076e-02
 -1.4744303e-02
 -1.5804273e-01
 -1.4273647e+00
 -1.2852147e-01
 -1.8020909e-01
 -5.0592430e-02
 -2.4809183e-01
 -1.7709963e-02
 -5.2597463e-01
  3.9005667e-01
 -4.2353835e-02
  3.9480144e-01
  8.0303967e-02
 -2.3132425e-02
  3.1623103e-02
 -1.2215906e-01
 -1.5550300e-02
 -3.6431909e-01
  1.1688375e-01
 -1.3491516e-01
  3.3146316e-01
  1.2351626e-01
 -5.5368409e-02
 -8.1027159e-03
 -3.1918064e-02
  3.9671622e-02
  9.4367154e-02
 -3.1642623e-02
  2.6186667e-03
  7.8107384e-03
 -5.4146238e-03
 -1.3471140e-01
  1.1346357e+00
 -8.6958736e-01
  1.6094906e+00
 -2.0146806e+00
 -8.8060373e-01
 -1.7474578e-01
 -5.7908547e-01
  2.4010329e-01
  8.4112193e-03
 -3.3968902e-01
 -8.6846051e-04
 -1.4744759e-01
 -1.3298675e+00
  9.0426849e-03
 -2.6030684e-01
 -2.9330321e-02
 -1.1872891e-01
 -2.9848129e-02
  2.1751060e+00
 -1.3400076e-02
  2.8238727e-03
  1.1599605e+00
 -1.1191315e-01
 -1.0443998e-01
  5.4054495e-02
 -4.7409780e-02
  5.5556707e-02
 -2.4899225e-01
 -5.5210775e-04
 -4.7118016e-02
  2.8718746e+00
 -2.2931895e-01
  2.2779811e-02
 -1.2041660e-01
 -8.4942743e-02
  7.2341919e-02
  1.6080035e-01
 -4.0040210e-02
  3.5962522e-02
  8.4466562e-03
  2.9215273e-02
  6.9048489e-03
  6.0119238e-02
 -1.0727172e-01
  2.4564169e-02
  6.1353758e-02
  2.0719463e-01
  1.1874819e-02
 -6.6554680e-02
  6.0468368e-02
 -2.4436758e-01
 -3.3578120e-02
 -5.0319474e-02
 -9.1067031e-02
 -1.0813568e+00
 -2.1293225e+00
 -1.4606892e+00
 -1.2657108e-02
  4.5833397e-01
  2.2362229e-01
  1.4914526e+00
 -3.1569164e-02
 -1.7461118e+00
  6.8268292e-02
  9.6874708e-01
  1.1682416e-01
  1.0029440e-01
 -1.7489779e-01
 -2.5132012e-01
  3.1319785e+00
 -3.1912595e-01
  5.0916547e-01
  2.4590049e+00
 -7.0238691e-03
  9.2034692e-01
 -7.0937866e-01
 -7.4208431e-02
  9.8170406e-01
  3.6789274e+00
 -2.2832528e-02
 -8.4907554e-02
  9.2324561e-01
 -1.1554546e+00
  1.2957456e+00
 -8.2662749e-01
  1.2954557e-01
  3.4142351e-01
  3.3390260e+00
 -4.8662451e-01
  2.8992611e-01
 -8.1182830e-03
 -2.4166945e-02
  1.1236838e+00
  3.2202125e-01
 -1.5040022e-01
  5.6195468e-01
  2.2677438e+00
  2.0235926e-01
  3.8863182e-01
 -9.2210412e-02
  1.8835005e-01
  4.2585981e-01
 -2.0785369e-01
 -6.8911821e-02
 -1.5856139e-02
 -1.3767131e-01
 -3.8258765e-02
  6.2450124e-03
 -1.6224767e-01
  1.3493435e-02
  5.6711048e-01
 -1.5873160e-03
 -1.4072570e-02
  3.6085695e-03
 -6.3138530e-02
 -2.1680343e-01
  2.0698035e-01
  1.9259816e-02
 -1.1732439e-02
 -1.3577357e-01
 -1.1251651e-01
 -1.7769448e-02
 -4.1291706e-02
 -1.0629770e-01
  6.1658483e-02
 -6.4490098e-03
 -8.5399270e-02
 -1.6458426e-02
  6.4090580e-02
  1.0099849e-01
 -7.4295513e-03
  2.2336457e-02
  1.9459743e-02
  2.5451788e-01
 -1.1118659e-01
 -1.2216692e-02
 -5.9862792e-02
  5.6023721e-02
  4.8181392e-02
 -2.5953141e-01
 -1.5137330e-01
  1.9906145e-02
  1.7842475e-02
  6.0843989e-02
 -1.0165042e-02
  4.8307229e-02
  8.3305784e-02
  7.4314274e-02
  2.8920297e-02
 -3.8970407e-02
  3.0072592e-02
 -5.2393906e-02
  3.2378711e-02
 -1.7877150e-02
  3.5667125e-02
 -2.7985045e-01
 -2.6641253e-03
 -8.2347333e-02
 -3.6523413e-02
 -3.8062297e-02
 -1.3876578e-02
  4.8077139e-03
  7.0222962e-01
  1.9693861e+00
 -2.0676742e+00
 -8.1930533e-02
  5.9224041e-03
 -2.7291646e-02
  4.3628827e-02
 -1.4582589e+00
  3.8203347e-01
 -2.1609500e-01
  1.4403386e-01
  4.6213534e-02
 -2.0825537e-01
  5.4631373e-03
  4.3040477e-02
  1.6133476e-02
 -3.6733184e-02
  5.9268191e-03
  2.6713511e-02
  1.5878391e-02
  2.1234877e-02
 -1.6460161e-01
  2.9871361e-02
  1.2750824e-01
  1.5345724e-01
  7.1819872e-02
  6.1568085e-02
 -3.9613999e-02
  4.8386157e-02
 -1.4868516e-02
 -6.1948091e-02
 -3.0441293e-01
  2.8774241e-02
  3.6245793e-02
  4.8767820e-02
 -5.4307086e-03
 -1.2243310e-02
  2.1899503e-01
 -6.6372588e-02
  8.4973395e-01
 -2.6831320e-01
  6.4569548e-02
 -4.1431212e-03
 -2.1167767e-01
  1.1509970e-01
  1.0403573e-02
  5.2320547e-02
  2.5234226e-02
  1.4309909e-02
  2.5821652e-02
 -9.7336713e-05
 -2.6539961e-02
  1.1902701e-01
  2.7480507e-03
 -9.6116155e-02
  7.0282794e-03
 -1.5475631e-01
 -2.7835684e-02
 -2.8339095e-02
  4.9325880e-02
 -5.1478390e-04
  1.0762650e-01
  1.0069542e-01
  2.2554756e-03
  5.8388215e-02
 -1.8638857e-02
  8.1627555e-02
 -1.9723710e-02
 -3.6076099e-02
 -7.3462762e-02
 -4.9051143e-02
 -1.1353707e-02
  2.0685159e-01
 -2.3349559e-02
 -1.1002706e-01
 -2.4068346e-02
 -3.3454753e-03
 -4.8151519e-02
  1.3517171e-01
 -9.9856161e-02
  1.2743016e-01
 -3.6128303e-03
  2.4810268e-02
 -9.4692670e-02
 -1.4677381e-02
  4.8950627e-02
  1.9029030e-03
  8.3071683e-03
 -1.2396648e-01
 -1.0043431e-01
 -8.8162869e-02
  4.5463964e-02
 -3.6080100e-02
 -2.9418629e-02
  1.0621114e-02
  1.9255077e-02
  1.8882325e-03
 -1.0360686e-02
 -2.0862646e-01
 -1.5420133e-02
  3.1815916e-03
  3.6111601e-02
  4.4988547e-03
 -2.3570407e-02
  3.0914018e-02
  2.2647651e-03
 -5.8176432e-02
 -1.1391616e-01
 -1.4990769e-02
  8.4087597e-03
 -6.3581660e-02
  5.3414702e-02
  1.7544562e-02
  2.1919949e-02
 -5.8617946e-03
  5.0130135e-01
  1.7939563e-01
 -1.3026562e-02
 -1.7012535e-02
 -8.5456945e-02
 -5.0815493e-02
 -2.5163245e-01
  7.6313145e-02
  3.8019416e-03
 -2.7482526e-02
 -5.3978013e-03
  1.4262457e-02
  1.0852276e-01
 -2.2207642e-02
 -9.5921308e-03
  3.9910015e-02
 -1.2996283e-02
 -9.4904779e-03
 -4.9443647e-02
 -5.7707191e-02
  2.3319928e-02
  6.1919849e-02
 -3.5319459e-02
  4.6916939e-02
 -7.4410811e-02
  9.6854381e-04
 -7.3680826e-02
 -5.5045530e-02
  1.2251347e-02
  3.3199575e-02
  3.5262238e-02
  3.8464274e-02
  7.4314445e-02
  1.3035345e-01
  1.3381498e-01
  1.1277443e-01
 -1.3791496e-01
  2.8589234e-02
 -9.5053256e-02
 -2.0245619e-02
 -2.2101295e-01
  7.7277705e-02
  4.2674910e-02
  7.8424796e-02
  1.1426804e-02
 -1.7825116e-01
  1.5698226e-02
 -7.1766758e-03
  2.1189384e+00
 -6.3582373e-01
 -5.0175333e-01
 -1.5853632e-02
  3.9418542e-01
 -1.0745705e-01
  4.0788439e-01
 -7.8402638e-01
 -3.4520641e-02
 -8.5006587e-02
  4.7495000e-02
  2.7545705e-02
  3.0590659e-01
  7.4706227e-03
  3.6484026e-04
  2.2537254e-01
  9.9347942e-02
 -4.1657537e-02
 -7.5074956e-03
  7.4617058e-02
  1.3998665e-01
  2.5854763e-01
 -3.4841485e-02
 -1.6063340e-02
  2.3252793e-01
  6.3015665e-03
  4.1619252e-02
 -5.3561207e-02
 -8.5378764e-04
  3.4967367e-02
  4.7060288e-02
  2.7387434e-01
  4.3663736e-03
  8.9365980e-03
  9.3484960e-02
  1.5839265e-01
 -8.3333626e-03
  1.9340056e-01
 -1.4992426e-02
  2.6882142e-02
  4.1423488e-02
  1.5432911e-02
  4.3878313e-02
 -1.8571174e-02
 -1.5647139e-01
 -2.3936685e-02
  6.2243058e-03
  9.0233358e-03
  8.2331613e-02
 -3.3775212e-03
  3.0317260e-02
 -1.4316767e-01
 -1.4045574e-01
 -1.2467893e-02
  8.7866694e-01
  2.5252125e-01
  9.9863118e-01
 -1.1882730e+00
 -1.4628488e+00
 -3.1663832e-01
 -2.7134991e+00
 -4.3428178e+00
  1.9999255e-01
  7.4408330e-02
  8.9887196e-01
 -3.3358383e-01
  5.0644857e-01
  1.3192150e-01
  1.4135005e-01
  6.2787998e-01
  2.0699479e-01
  4.4648099e-01
 -4.2808273e-01
  5.6016189e-01
 -1.9857593e-01
  1.1282628e-01
  5.7349789e-01
  4.6248767e-01
  4.4230372e-02
  3.2353308e-02
  5.2308984e-02
 -4.4307381e-01
  7.4917740e-01
 -1.8957037e-02
  7.9230267e-01
  6.3304275e-01
 -9.2089154e-02
  4.7055315e-02
  1.0827183e-02
 -1.3276646e-01
 -1.4677358e-01
  9.6802634e-01
  1.9624910e-01
  4.3129772e-01
 -5.8636703e-02
  2.0169651e-02
  1.6052575e-01
 -4.5673620e-02
 -3.9482139e-02
 -2.3457706e-02
 -5.7134318e-01
  3.4332031e-01
  1.1031256e-01
 -5.1892165e-02
  1.2898380e+00
  1.3022211e-01
  5.5858279e-03
 -7.6457143e-01
  8.6675389e-03
  1.6400801e+00
  3.9813973e-02
  7.9428777e-02
  1.2891345e+00
  1.5679653e+00
  1.5794488e+00
 -7.9440272e-01
  3.9060954e-02
 -1.1791315e+00
  9.6281823e-03
 -2.7089846e-01
 -8.8372685e-02
 -1.8417798e-01
 -1.0232967e-01
 -7.7717416e-03
  4.5506172e-02
  2.6981804e-01
 -1.9981097e-01
 -6.9068953e-02
  4.7187936e-02
  7.4535254e-03
 -2.3278955e-02
 -7.4768625e-03
  3.2979123e-02
 -1.0858914e-02
  1.6203662e-02
 -2.0859165e-01
  9.7101837e-02
  1.9006065e-01
 -4.4690683e-02
 -1.5887851e-02
 -1.4637291e-02
 -3.2903057e-02
 -1.8261962e-02
 -3.6754003e-01
 -1.3447832e-01
  2.5519016e-01
 -8.1505007e-01
  1.4817865e-01
  9.0341479e-02
  2.2930300e-02
 -2.7826369e-02
 -1.2611037e-02
 -1.6405683e-02
 -3.4806717e-02
  5.2434120e-02
 -6.9252588e-02
 -3.8295679e-03
  8.5980073e-03
 -3.0410247e-02
  7.8300633e-02
  1.7956607e-02
  1.4975890e+00
 -5.2081808e-02
 -8.1157136e-01
  2.6147459e+00
  1.9771503e+00
 -6.7516491e-02
 -1.6791180e+00
 -6.5315813e-01
 -1.5243337e+00
  2.8949293e-01
 -2.6786157e-01
  4.1949323e-01
 -3.3742848e-01
  1.1711339e-01
  8.9282179e-01
  4.7937915e-02
  1.1506830e+00
 -1.1514887e-01
 -2.0426707e+00
  1.0366335e+00
  6.9910365e-01
  1.9632061e-01
 -5.3300750e-01
  5.4445559e-01
  4.2259902e-02
  1.3704944e-01
  7.9169118e-01
 -1.2143519e+00
 -3.8422781e-01
  1.4425167e+00
  4.0543523e-01
  5.3990883e-01
  1.3617026e+00
  4.1511586e-01
  7.5932544e-01
  6.0399723e-01
 -4.3715635e-01
  1.0688186e+00
  1.6858955e-01
 -1.2389784e+00
  5.7619251e-02
  4.0545490e-01
  9.4896950e-02
 -5.4423850e-02
  5.9904730e-01
 -1.0770233e-01
  1.0531132e-01
  4.1799787e-02
  1.1946638e-01
  3.3088032e-02
  1.7146016e-02
 -6.8302393e-02
  4.3790754e-02
  2.2371154e-02
 -1.2271215e-01
 -1.1075598e-02
 -6.6822544e-02
  5.2825637e-02
  2.0362422e-01
  5.5928960e-02
  2.5340986e-02
  3.7494734e-02
  3.5000216e-02
  6.1795127e-02
  6.4291824e-03
 -3.0577848e-02
  4.0929958e-02
  1.3413634e-02
  4.3837100e-02
 -3.3714531e-03
 -7.5204568e-03
 -5.5718631e-02
 -3.1987488e-02
 -1.5750879e-01
  3.0110659e-02
  4.3120496e-03
  4.0013701e-02
  4.4079255e-03
 -4.4556938e-02
 -7.5924963e-02
  9.1720663e-02
 -9.1319541e-03
 -2.5104996e-02
 -3.6493797e-02
  6.6365197e-02
 -5.2965160e-02
  2.2828802e-02
  6.7687377e-02
 -2.0510463e-01
 -1.0017473e-01
  1.0155360e-01
  3.4868263e-02
  3.6337521e-02
 -1.4490183e-02
 -1.2165064e-01
  2.2076121e-02
  6.7538299e-02
  1.2374271e-02
  1.3867076e-01
  2.3629561e-02
  5.1521171e-02
  1.9026076e-02
  5.9311055e-02
 -1.7555896e-05
  2.5052121e-02
 -3.6705621e-02
 -3.9859861e-02
 -6.7106709e-02
  4.4110157e-02
 -1.1407488e-03
  1.7868766e-01
 -1.9259367e-02
 -3.1113815e-02
 -2.1220196e-02
 -1.8329239e-02
 -2.3011836e-01
  9.4971694e-02
  5.8198567e-03
 -1.8234942e-03
  4.1135002e-02
  9.7934350e-02
 -5.3502455e-02
 -6.5677516e-02
  1.4380277e-02
  2.7253477e-02
 -1.1254293e-01
 -8.8268667e-02
 -1.3591217e-01
 -1.0119093e-02
  4.5716027e-03
 -2.2731988e-02
  2.1509496e-02
  1.8131617e-02
  7.9264995e-03
  4.7563173e-02
 -6.5936372e-02
 -1.0048131e-02
  3.2382760e-02
 -8.7636588e-03
  9.1972113e-02
 -6.5776281e-02
 -5.3444855e-02
 -1.1128637e-02
  3.4425657e-02
  4.9126320e-02
  6.4314529e-02
 -2.7847260e-01
 -5.9613146e-02
 -8.6814910e-03
 -1.0595758e-01
 -9.9645354e-02
  1.8697713e-02
  9.8222464e-02
 -6.5869212e-02
  1.1820219e-02
  7.0993036e-02
 -1.7577926e-02
 -5.4823481e-02
  4.5601666e-02
 -1.0271551e-01
 -7.6679210e-03
 -5.1551323e-02
  3.1837896e-02
 -2.4033375e-02
  4.8507890e-01
 -5.1118614e-04
  7.0024272e-03
  2.3191130e-02
 -1.8766433e-02
 -3.9193969e-02
 -1.7157216e-01
  9.5106274e-02
  1.2857596e-02
  1.0630906e-02
 -2.8520957e-02
 -9.2566451e-03
  1.5414736e-01
 -2.5238795e-02
 -1.6007332e-02
  1.2218445e-02
  3.3152369e-01
 -1.1045712e-01
  8.9816600e-02
  8.1557939e-03
  4.7692973e-02
  2.0055782e-02
  5.1902022e-02
  1.1451823e-01
  2.7046327e-02
 -7.8684762e-02
 -9.9083170e-02
  3.2427818e-02
  1.6157851e-02
  7.1947165e-03
  1.9397430e-01
 -2.0817773e-02
  2.0412129e-01
  8.5051924e-02
 -9.6645197e-03
 -1.4980203e-01
  3.1361639e-02
 -4.1391492e-02
 -2.4789083e-04
 -1.6235214e-02
  5.1761325e-03
  1.1628767e-02
  3.4415714e-02
  5.8087379e-02
 -5.3586595e-02
  1.9340435e-01
 -5.3070948e-02
 -5.6903820e-02
  2.7634887e-02
  1.6576079e-01
 -7.9887724e-03
  2.7669091e-02
  2.2014971e-01
  1.4965694e-01
  5.1617426e-01
 -1.6189041e-02
  1.1602565e-01
 -1.1773701e-03
 -9.0851799e-02
  4.6289557e-01
 -2.5642377e-01
  6.9958330e-03
  4.6166133e-02
  1.3431238e-03
 -5.4112710e-02
 -5.9911493e-02
  3.1541660e-02
  9.5943719e-02
  1.7112842e-01
  2.4192028e-02
  7.7480964e-02
  9.8793525e-03
  1.0061055e-01
 -1.4783488e-01
 -2.5439546e-02
  2.9176751e-02
  8.8552698e-02
  3.8075319e-01
  1.0125143e-02
 -1.3300764e-02
 -3.9008234e-02
  5.4064658e-02
  7.2907664e-02
 -7.8906305e-04
  7.9388283e-03
 -8.4404930e-02
 -9.2053004e-03
  8.0783173e-02
 -7.1363486e-02
 -4.7208600e-02
  6.2259426e-03
 -1.6936516e-02
  1.9397169e-01
 -8.4129676e-02
 -8.0545023e-03
  2.8495431e-02
  1.0540655e-01
  4.4045970e-02
  9.0423435e-02
 -3.2068916e-02
  8.6517379e-02
  4.9432535e-03
  5.3942557e-03
  2.0730508e-02
 -3.9020725e-02
 -1.6426286e-01
 -1.6430513e+00
 -1.3530329e+00
  1.1707232e+00
  1.1922224e+00
 -5.5303347e-01
 -7.8009444e-01
  4.8882028e-01
  7.4052447e-01
 -1.0364652e+00
  7.8754142e-02
 -6.1704904e-02
 -1.6150024e+00
  5.3966641e-01
 -2.1433429e-01
  7.9516068e-02
 -4.2412731e-01
 -1.9514677e-01
  1.5752104e-01
  3.2348920e-02
 -5.8584428e-01
 -1.4933840e+00
  2.4687928e-01
 -3.3018830e-01
 -9.4967610e-01
  7.7127624e-01
 -5.1444250e-01
  5.0001526e-03
 -6.8991357e-01
 -1.3234402e+00
  1.5749717e-01
 -3.7745073e-02
 -1.2202949e-03
 -5.2960283e-01
  5.2544564e-01
 -1.1400772e+00
 -1.9294083e-02
  3.1290352e-01
 -6.7253780e-01
 -6.5663725e-02
 -5.3243673e-01
  4.5556873e-01
 -9.4649833e-01
  3.3427998e-01
 -9.4441362e-02
 -8.7446678e-01
  4.3201335e-02
  7.5269413e-01
  2.4107717e-02
  7.3876597e-02
 -8.6191386e-02
  3.3225033e-02
 -1.1451291e+00
  9.8222658e-02
  1.3938347e-01
  1.0938054e+00
 -1.0948449e+00
 -6.6836202e-01
  8.2285607e-01
 -1.9785597e+00
 -9.1357601e-01
 -4.9767655e-01
 -1.1716830e+00
  3.2930684e+00
 -2.4419527e-01
 -8.6551243e-01
  5.4894540e-02
 -2.2613159e-01
 -2.6432949e-01
  4.8930086e-02
  1.3823482e+00
 -2.9070514e-01
  1.4364122e-01
 -8.2800597e-02
 -1.0440896e-01
  4.5918212e-03
  6.5306962e-01
 -4.6177242e-02
 -1.4216559e-01
  7.8210561e-03
 -1.5244027e+00
 -1.1874706e-01
 -3.9208534e-01
 -1.2826929e+00
  1.8970160e-02
  1.0474544e+00
 -8.4742701e-01
 -4.3382481e-01
  9.9972762e-02
 -2.8203019e-01
 -9.0946043e-01
  3.7238547e-01
 -1.6260717e-02
 -8.8645078e-02
  3.6770485e-02
 -7.7046156e-01
 -2.1137956e-01
  1.3288805e+00
 -4.5090178e-01
 -1.4482139e-01
  1.3722873e-01
  8.2569972e-02
 -3.5564914e-02
 -2.6841164e-02
 -3.4682295e-01
 -5.3777322e-02
 -4.8105946e-01
 -8.4564142e-02
  3.7463639e-02
  1.9932544e+00
  2.7654898e+00
  1.4397089e+00
  1.3266845e+00
  8.5873461e-01
 -5.7081938e-01
  1.6332567e-01
  4.9516928e-01
  3.6784959e-01
  2.8972161e-01
 -6.9407827e-01
  2.5504578e-02
 -3.4951428e-01
  9.8904783e-01
  1.1138258e-01
 -4.7207123e-01
  1.2173872e+00
 -1.0646995e-01
  2.2469674e-01
  2.4554840e-01
  6.2138975e-02
  2.9503413e-02
  5.6808758e-01
  8.2901448e-02
 -1.2198962e-01
  1.0281118e+00
 -3.7995674e-02
  4.6550664e-01
 -5.6919509e-01
  2.3054580e-01
 -2.7000611e+00
  1.9404963e-01
 -2.5462962e-03
 -4.0168411e-01
 -2.3357809e-01
  1.1821573e-01
  1.9155630e-01
 -4.5459229e-02
 -1.1877500e-02
 -8.9617588e-02
  5.8038741e-01
  1.8910168e-01
 -1.7570435e-01
 -1.5984327e-01
  5.3261302e-02
  1.6810918e-01
 -3.8317172e-03
 -9.7179048e-02
  5.2252572e-02
  4.9570739e-02
 -8.0521539e-02
  2.3544054e-01
 -9.6202150e-02
  4.6741422e-02
 -4.6418533e-02
 -1.5816079e+00
  1.4545001e-01
 -4.2508498e-02
  3.1859644e-02
 -9.0760561e-03
  7.5072147e-02
  3.0259945e+00
 -3.6330488e-02
  9.1042399e-02
  7.5672045e-02
 -1.2706772e-02
  7.0566438e-02
 -4.1783810e-02
 -9.0173572e-02
  6.1846469e-03
  6.6301720e-03
  3.5238013e-02
 -2.2205191e-02
 -1.6111031e-02
  3.8086232e-02
 -6.1289780e-04
 -1.2452146e-01
 -7.9188133e-03
  2.7723944e-02
 -5.5249124e-03
 -1.9831848e-01
 -5.2112821e-02
 -2.4209712e-03
  3.3575748e-03
 -1.8756293e-02
  6.8845503e-02
  5.0329254e-04
  6.0563877e-02
  5.5288475e-02
 -1.6525932e-02
  3.0398335e-02
 -6.0856793e-02
  1.7938897e-02
 -2.2942464e-01
  4.1124903e-02
  3.6919326e-02
 -6.3182963e-03
  2.1796675e-02
 -1.3255009e-02
  9.2123551e-03
 -1.4478536e-01
 -1.8195014e-01
 -6.8962313e-03
 -8.6454339e-02
 -4.6556778e-02
  4.7638100e-02
 -1.2537110e-01
 -7.5697355e-02
 -1.6955259e-01
  5.9501756e-02
 -2.2205225e-01
  4.3544218e-02
 -3.0862367e-02
 -4.8983853e-02
  1.8168341e-02
  3.6161128e-02
  1.1779992e-01
 -4.0579684e-02
  2.3826472e-01
 -1.4877733e-02
 -1.0435087e-02
  4.9887594e-02
 -1.6861722e-01
  9.6511282e-03
 -5.7415377e-02
 -7.9113737e-02
 -3.7087409e-03
  1.7404638e-04
  3.7714943e-02
 -1.0110222e-01
 -9.8644629e-02
 -2.0903286e-02
 -1.9821687e-02
  6.5618739e-02
  5.5818153e-03
 -2.6563892e-02
  2.5507089e-01
  1.1353907e-01
  1.0996827e-01
 -4.2193189e-02
 -4.2592734e-02
  1.0498799e-01
 -4.5656443e-02
 -3.6236174e-02
  1.4312391e-01
  1.0448961e-01
 -2.2151665e-01
 -1.3142888e-02
 -6.9444582e-02
 -1.4611846e-01
  6.9964066e-02
 -1.8522549e-02
 -4.0296832e-04
  2.9985966e-02
  9.0101071e-02
  1.2564433e-01
 -1.3459104e-01
  8.8077113e-02
  5.2318122e-02
  2.3148064e-02
  2.1844691e-02
  2.6292708e-02
  2.9230438e-02
 -6.7800350e-02
 -3.3890858e-02
  4.6473141e-03
  5.7642637e-03
  8.3080292e-02
  6.9743477e-02
  8.4423823e-03
  4.9785379e-02
  6.2829472e-02
 -9.3854226e-02
 -6.0297143e-02
 -5.1279768e-02
  7.7081837e-02
 -1.7584744e-01
  6.7735882e-04
 -2.5480139e-01
 -8.1769107e-03
 -9.8525174e-03
 -5.9335776e-02
 -1.7249279e-02
 -3.0665962e-02
  7.2196707e-02
 -8.6471774e-02
 -1.7086314e-01
 -5.6548294e-02
  1.1284675e-01
  1.5675725e-02
  6.7786530e-02
  5.2776206e-03
 -1.4940052e-02
 -6.0473964e-02
 -2.2916483e-02
 -2.5307985e-02
  1.1890074e-02
 -2.1523316e-01
 -1.9100262e-01
 -4.2108398e-02
 -8.4207468e-02
 -6.7135565e-02
  4.6931986e-02
 -7.8851081e-02
  3.0742649e-02
 -7.3549096e-03
 -1.8361023e-02
 -3.6227204e-02
 -4.7289558e-02
 -1.0619601e-02
 -5.5212613e-02
 -4.4713959e-02
 -1.5048429e-02
 -7.7457046e-03
 -3.5024527e-02
 -9.7811505e-02
 -1.1679007e+00
 -1.4168236e+00
  1.2734982e+00
 -1.0685214e+00
  4.0020135e-01
  1.1907420e+00
  5.5837166e-03
 -3.8752881e-01
  1.1047044e+00
 -2.4344822e-02
 -9.6402653e-02
 -2.4608192e-01
  1.2497201e-02
  2.3568320e-01
 -5.8914161e-01
 -3.6817881e-01
 -2.5755501e-01
  1.6739408e-03
  2.6246679e-01
 -5.8349907e-01
  2.2744842e-02
 -4.9641001e-01
 -7.1153402e-01
 -5.9094435e-01
 -3.0567372e-01
 -6.6724598e-01
 -9.0019590e-01
 -8.8843822e-02
  4.2136472e-02
 -7.6645780e-01
 -3.5590056e-01
 -4.6202371e-01
 -7.7130723e-01
  2.3667851e-01
 -1.6942415e-01
 -8.7986857e-01
  3.0774733e-01
 -3.1798327e-01
  1.1425377e-01
 -3.2029869e-03
 -4.9290848e-03
 -7.7100612e-02
  2.1403538e-01
  1.8452597e-01
 -7.8011644e-01
  2.6696371e-02
 -7.3066987e-02
  8.9116856e-02
  4.8005506e-03
  2.1660458e-02
  3.0826497e-01
 -5.2965224e-01
 -1.2202393e-01
  1.1618873e-01
  9.7908384e-01
 -4.9804589e-01
  3.8058393e+00
  2.1359982e-01
  9.9413678e-02
 -2.3395023e+00
 -5.7493573e-01
  1.0967824e+00
  1.8915960e-01
  5.1198345e-01
  1.4499871e-01
 -2.3810148e-02
  9.1056365e-01
 -3.4312350e-01
 -7.1028091e-02
 -3.8914025e-01
 -3.9985750e-02
 -2.8845575e-04
 -1.6092479e-01
 -2.1273716e-01
 -6.9375330e-01
 -3.5998195e-02
 -2.7096015e-01
 -4.3602934e-01
 -5.3195596e-01
 -5.9893310e-01
  1.4186101e-01
 -3.4011337e-01
  1.1077107e+00
 -6.2863582e-01
  1.8145891e-03
 -3.8837999e-01
 -4.5109913e-01
 -3.6055622e-01
 -6.9175683e-02
 -9.3432583e-02
  2.0181425e-01
  6.3001728e-01
 -2.9170704e-01
 -7.8953646e-02
 -8.3383769e-01
 -1.8093711e-01
 -1.5246481e-01
 -2.9260181e-02
 -1.2896212e-02
  9.9784747e-02
 -2.4208884e-01
 -1.0478494e-01
 -1.0651736e-01
  4.0667191e-02
 -1.9447373e-01
 -3.9744593e-02
  4.9175434e-02
  1.4078203e-01
 -1.2305059e+00
 -2.6007771e+00
  2.2953698e-01
  8.5688204e-01
 -1.5466487e+00
 -1.0645933e+00
  2.5630680e-01
  1.4967436e+00
  7.7444598e-02
 -7.9709694e-02
  2.2981828e-01
 -9.1748685e-01
  8.5352376e-02
  7.8284889e-02
 -1.7601173e-01
 -1.5254496e-01
 -4.7667196e-01
  3.9792795e-02
 -1.4205179e-01
  1.1093084e-01
 -5.5537653e-01
 -6.2795445e-02
 -1.1035992e+00
 -2.7550635e-01
 -1.5258121e-01
 -7.4828768e-01
  1.9433156e-01
 -1.0587409e+00
 -1.4251313e+00
 -1.4158213e-01
 -8.6330366e-01
 -7.1719247e-01
 -1.1400265e+00
 -2.0163065e-01
 -3.0521171e-02
  2.2944774e-01
  2.0998664e-01
 -1.4159305e-01
 -2.8777829e-01
 -1.0104766e+00
 -1.0193110e+00
 -9.2871600e-01
 -2.0865920e-01
  2.1731997e-01
 -1.0116245e-01
 -1.5230547e-01
  1.8803804e-01
  3.4338827e-03
 -3.3961630e-01
 -1.9565443e-02
  1.6320425e-01
 -2.3664370e-01
  2.8506318e-02
  8.1873145e-03
  1.9923251e+00
  1.0174711e+00
 -1.8992817e-01
  1.5428395e+00
 -2.9524046e-01
 -6.3982034e-01
  6.2488534e-02
 -3.5827216e-02
 -9.8330384e-01
  8.6637044e-01
  8.4337801e-01
  1.4018817e+00
 -2.2665073e-01
  5.1708227e-01
  1.8856381e+00
 -6.2706476e-01
  1.0953993e+00
  2.6195383e-01
  1.9258714e+00
  2.1528597e+00
  2.7687120e-01
 -1.5759723e+00
  6.4590377e-01
 -1.7869042e+00
  8.4337991e-01
 -9.9991681e-04
 -2.6396446e+00
  7.8355336e-01
  3.5192722e-01
  8.6590081e-01
  3.2324603e+00
  2.0900208e-01
  1.3940457e+00
  7.3970675e-01
  2.4010119e+00
  6.7954138e-02
  3.2739559e-01
  6.4340121e-01
  7.3728418e-01
 -2.5611985e+00
 -1.2628803e+00
 -2.2207687e+00
  6.7870766e-01
 -5.1658589e-01
 -2.8794627e+00
  1.9808317e+00
 -2.2062426e+00
 -2.5157571e+00
 -1.5474668e+00
 -1.4672604e+00
  6.4986336e-01
  1.4750626e+00
 -2.3221717e+00
 -2.0516776e-01
  3.7187693e-01
  8.7517790e-02
 -1.2853523e-01
  2.9123008e-02
  2.1411483e-01
  2.1413039e-01
  1.7179339e-01
  7.2745681e-01
 -9.0463780e-02
  3.6542895e-01
  6.1755806e-01
 -3.3561811e-01
 -2.8432325e-01
  2.8441221e-01
  2.7300221e-01
 -1.1473898e+00
  5.1318216e-01
  4.3104222e-01
 -6.1083126e-01
  6.0100561e-01
 -2.7858746e-01
 -3.0419633e-01
 -6.4633334e-01
 -2.8906584e-01
  4.7517166e-01
 -1.1521201e-01
  3.8469437e-01
 -8.2509056e-02
 -3.2406953e-01
  2.0783147e-01
  1.6129205e+00
  2.3482278e-01
  6.9259238e-01
 -5.0502025e-02
 -1.2362336e-01
  2.2929852e+00
  2.4246632e-01
 -1.2964344e+00
 -6.3055038e-01
  3.2949367e-01
 -2.2791183e-01
 -6.0077071e-01
 -1.3065223e+00
 -1.5526735e+00
 -2.4052072e-01
 -4.5914152e-01
  9.0839571e-01
 -3.6926213e-01
  8.1626707e-01
 -5.5964161e-02
 -8.0715442e-01
 -1.5958305e-01
 -1.0311173e-01
 -8.2431608e-01
  2.3258469e-01
  3.5662251e-03
 -7.0755535e-01
  6.8153620e-02
 -2.3445110e-01
  3.2893002e-01
 -6.2362516e-01
  6.7074802e-03
 -1.2743816e-01
  7.5933784e-03
 -1.5328334e-01
  4.5746157e-04
  3.9484370e-02
 -2.9398093e-01
 -1.8775296e-01
 -5.2400875e-01
 -5.6543672e-01
  1.5417950e-01
  1.7266931e-01
 -5.1044801e-04
 -7.4998118e-02
 -1.3449770e-01
 -1.2736771e-01
 -1.3546645e-02
 -5.2548963e-01
  1.8093275e-02
  1.8869533e-03
 -2.8782463e-01
 -1.0465007e-01
 -4.2224184e-02
 -3.2678153e-02
 -2.8508613e-01
  5.8467373e-02
 -3.6925319e-01
 -6.7551702e-02
  3.9832436e-02
 -4.6795778e-02
  3.4533001e-02
 -1.8263438e-01
  9.0997614e-02
 -1.1001784e-01
  1.4973412e-01
  2.1673106e-02
  5.6986194e-02
  9.0664580e-02
  1.2020430e-01
  6.0651479e-03
 -4.8188239e-02
 -9.9988312e-02
 -8.4843929e-04
  3.9416965e-02
 -3.6567897e-02
  2.2183819e-02
  4.8234854e-02
 -1.0224095e-01
 -1.9493993e-02
  5.6663621e-02
  8.9345932e-02
  4.5436293e-02
 -1.7442900e-01
  2.7932874e-03
  1.8261482e-01
  6.4262995e-03
 -2.3928665e-02
  5.0494159e-03
 -4.3223679e-02
 -4.6311740e-02
  8.1678718e-02
  1.2744737e-02
 -3.0253831e-02
 -1.3244031e-01
  2.5345098e-02
  1.4413922e-02
 -4.1037772e-02
  3.9509535e-02
  3.1931616e-02
 -9.4581544e-02
 -8.5943509e-03
  8.1438653e-02
  4.1379739e-02
 -4.6633659e-03
  1.3919503e-03
  8.4472589e-02
 -8.2563624e-02
  4.2589918e-02
 -2.3949504e-02
  9.2080995e-02
 -3.5876837e-02
 -1.9260970e-01
  2.0459887e-02
  4.0828139e-03
 -9.1564180e-03
  3.3294920e-02
 -3.0296156e-04
 -2.3788165e-02
  2.8182063e-03
  2.0864094e-02
 -6.9995992e-02
  2.7775306e-02
  7.8701228e-02
 -2.4766544e-01
  4.8438367e-02
  1.1418199e-01
  1.8234141e-01
  7.7485842e-01
  3.3148315e-02
  3.5511032e-02
 -2.5647553e-02
 -6.5451460e-03
  7.4667379e-02
 -2.3388632e-02
 -1.7518021e-02
 -4.7182509e-01
 -8.2834765e-02
 -5.5711430e-02
 -1.2162688e-02
  2.1329474e-01
  4.6619423e-02
  2.0197853e-02
  7.3571607e-02
  1.2223101e-02
  1.2507989e-01
  7.1935825e-02
  6.1595023e-02
  2.0240489e-03
 -1.1592221e-02
 -1.3695906e-01
 -3.3096164e-02
 -2.4877116e-02
 -5.0204415e-03
 -8.8991538e-02
  1.1923044e-02
 -5.7712670e-02
  2.7518608e-02
 -1.2625009e-01
  9.6433736e-02
  1.6909892e-02
  1.8751144e-02
 -6.7993574e-02
  3.6763970e-02
 -2.7700299e-02
 -2.6643129e-02
  4.3918449e-02
  7.3107861e-02
 -1.2274054e-01
 -2.5479119e-02
  4.8418041e-02
  1.0086769e-02
 -1.9357853e-02
  2.3381929e-01
  2.6953518e-02
  2.1878811e-02
  4.6540335e-02
 -1.6042965e-03
  5.4130238e-01
 -1.4634192e+00
  3.3170587e-01
 -3.1366104e-01
  1.4778334e+00
  7.6308471e-01
 -1.7167669e-02
 -2.1017784e-01
  2.6559538e-01
  1.9515201e-02
 -6.4977372e-01
  1.3115677e-02
 -1.1394678e+00
  3.5378432e-01
  6.7775920e-02
 -2.1286945e-01
 -5.8403939e-01
  1.0873688e-01
  2.9837664e-03
 -1.9326277e-02
 -1.3451418e-01
 -5.5005622e-01
 -3.7998442e-02
 -5.2662794e-03
 -2.0909677e-01
  1.5270834e-01
 -1.4806029e-01
 -5.2153701e-01
 -4.0221637e-01
  2.9023908e-02
 -8.9392769e-01
 -1.8431416e-01
 -2.9376751e-01
 -4.4213158e-01
 -5.3909683e-01
  5.7914015e-02
  5.6752790e-02
 -6.0987469e-02
 -6.2442798e-02
 -5.8991443e-02
  6.5895125e-02
 -2.1048738e-01
 -3.1340244e-01
  5.8757763e-02
 -1.3929465e-01
 -1.7095076e-02
  2.3592997e-02
  6.8810448e-02
 -2.4859037e-02
  4.6128253e-03
  2.4551149e-02
 -1.7135004e-02
 -1.4088044e-01
  1.2584156e-01
 -1.7872769e+00
 -1.7169071e-02
  5.2341841e-02
 -5.2845594e-02
 -1.6754104e+00
 -1.3446639e+00
  1.2301043e-01
  2.8893629e-01
  1.0073106e-01
  1.3119443e-01
 -3.7934191e-03
 -9.7710684e-02
  7.5472565e-03
  2.5009967e-02
  8.0602862e-02
  3.2619808e-02
  1.5015654e-01
  6.3388959e-02
 -7.1813278e-02
  1.1729308e-01
  9.1148652e-03
  1.7972922e-01
  3.6612225e-03
 -7.8405902e-02
  6.3679941e-02
 -4.1070431e-02
 -7.8266650e-02
  3.0053535e-02
  1.6517270e-01
 -8.2847811e-03
 -5.6779622e-03
  2.3219991e-02
  3.9392356e-02
  1.5037256e-01
 -2.6423158e-04
 -6.1973855e-03
 -3.3185817e-02
 -1.8008674e-02
 -2.7505722e-02
  3.6419977e-02
  1.2267855e-01
 -7.0746340e-02
  4.2762619e-02
  1.0552048e-01
  6.3788958e-02
  1.7359790e-03
  5.3016517e-02
 -6.8808019e-02
 -9.2742071e-03
 -1.0038722e-01
 -9.9417279e-03
  1.7094879e-01
  8.3409749e-02
  9.3100376e-02
 -4.4442120e-01
 -1.8785028e-01
  1.0865704e+00
  2.3801072e-02
 -8.2817274e-01
  4.5697773e-01
 -1.3332325e-01
  5.6005837e-03
 -1.9016518e-01
  1.6864333e-01
 -7.5228572e-02
 -3.7059601e-02
 -9.4514048e-01
 -1.2328953e-01
  1.1058353e-01
 -9.1293210e-01
  7.0055336e-02
 -1.4658539e-01
 -5.3624734e-02
 -3.2973766e-02
  1.4462704e-02
 -3.5193273e-01
  6.4550561e-01
  4.9516458e-02
 -1.3365818e+00
 -1.3460244e-01
  4.8633032e-02
 -1.8455686e-01
  4.5662364e-03
 -8.2482897e-02
 -1.5128697e-01
  4.3059134e-01
  2.1597888e-02
 -4.0901870e-01
 -7.9172760e-02
  3.9091930e-02
 -1.2135470e-01
  3.8951978e-02
 -1.4828636e-02
  1.9314017e-02
 -2.5040361e-03
 -2.7089082e-02
 -9.1358935e-03
 -6.2966913e-02
 -8.9712568e-02
 -2.1152280e-02
 -1.7706712e-01
 -6.6560999e-02
 -4.0744588e-02
  2.1282241e-02
  1.9913029e-02
 -4.5713875e-04
  2.3012599e-02
  3.9644596e-01
 -1.4685219e-02
  7.4322999e-01
 -7.7722259e-02
  7.3217146e-02
 -2.8266889e-01
  1.7784215e+00
  6.2652938e-02
 -1.0995016e-02
  5.0460601e-01
  2.5016540e-01
 -1.6640164e-01
 -7.4393251e-03
  5.2760445e-02
  2.4828814e-02
  1.5451860e-01
 -2.9489293e-03
  2.8727767e-01
 -1.5374987e-01
 -3.0588243e-02
 -1.2831658e-01
  9.6575413e-03
  9.2220522e-02
  3.1067210e-01
 -1.7014699e-02
  8.1013441e-03
  3.4699798e-02
 -9.5875524e-02
  9.3456738e-02
 -4.5531668e-02
  6.4904876e-02
  2.1858007e-02
  5.5554241e-01
  5.5212718e-02
  9.9071600e-02
 -2.7346229e-02
 -4.2434508e-01
  1.0713100e-01
 -5.3259347e-02
  1.1815375e-02
  2.8724468e-03
  2.1147314e-02
  3.7318215e-02
  5.3919587e-02
 -3.8110778e-02
  6.2807560e-02
  2.0713581e-02
  2.6826382e-02
 -5.9521474e-02
 -2.0529376e-02
 -4.9538549e-02
 -1.0841890e-02
 -1.2592407e-02
  3.0150551e-02
 -1.4715503e-01
 -8.8331890e-01
 -1.5151461e+00
  1.4169552e+00
  2.8033780e-02
  6.1772630e-02
 -7.5946927e-01
 -8.3388582e-02
 -8.9345641e-02
  9.5470212e-03
 -8.1023730e-02
 -4.2922562e-01
  1.6298704e-01
  1.7138729e-03
  7.2576143e-02
  1.8813917e-02
 -1.9983514e-01
 -2.2273043e-01
 -2.9414876e-03
  1.2215052e-01
 -4.1849770e-02
 -1.7848428e-01
 -5.9798992e-01
 -4.5766416e-01
  1.2587713e-01
 -4.6885756e-01
 -6.7808211e-01
 -1.2305442e-01
 -2.3159280e-02
  6.8067983e-02
 -5.8177481e-03
 -2.5486541e-01
 -9.0261936e-02
 -1.3134156e-02
  2.6039050e-03
 -7.4891590e-02
 -7.8659558e-01
  3.6361960e-01
  5.2401841e-02
 -2.5257471e-03
 -9.1031101e-03
  3.7577920e-02
 -5.2123092e-02
 -2.4451595e-02
 -1.9881786e+00
 -7.4747181e-01
 -1.2003582e-01
  2.9437773e-02
  6.0132291e-02
  2.0731102e-01
 -2.1701420e-02
  9.8491931e-01
  7.5733764e-03
  2.8076565e-02
  2.3677595e-01
 -1.4302375e+00
 -5.9280521e-01
 -3.4867384e-02
  5.0318062e-01
  9.6307695e-01
  6.4044492e-03
 -8.2856005e-01
 -1.2787048e-02
  3.6360347e+00
 -1.1967393e-02
 -6.5356441e-02
 -4.3922117e-01
 -2.6838967e-01
  5.5654798e-02
 -9.6029580e-02
 -1.9219223e-01
 -3.7902683e-01
  5.5612452e-02
 -4.5673808e-01
 -5.1618159e-01
  4.6628699e-02
 -7.0939636e-01
  8.5315096e-01
 -5.6526423e-01
 -5.0587493e-01
 -1.0537202e-02
  1.4272682e-02
 -8.8113481e-01
 -1.8486897e-02
 -1.8281789e-01
 -8.6120063e-01
  4.4901103e-01
 -2.1638040e-01
 -9.9816456e-02
 -9.6240246e-01
  7.4146575e-01
 -2.2375682e-02
  4.8442775e-01
  3.1343497e-02
 -1.2449496e-01
  8.6370617e-01
 -2.3377812e-01
 -1.4985621e-03
 -2.4166504e-02
 -5.4549687e-02
 -3.4484148e-02
 -1.1669457e-02
 -6.8523377e-02
 -7.3481604e-02
 -2.5508177e-02
  6.1445490e-02
  3.9332539e-02
 -3.5672611e-01
  2.6729332e-02
 -5.3890890e-01
 -6.4679229e-01
  1.1737639e-01
 -1.0695765e-01
 -8.0291092e-01
  1.8139464e+00
 -1.1974460e-02
 -2.2066668e-02
  9.7102910e-01
  7.9515792e-02
 -3.3038788e-02
  5.7658091e-02
 -1.7845120e-01
  7.0899767e-01
 -1.3340391e-01
 -2.0760337e-03
 -5.7717487e-02
  3.7691969e-01
 -8.2182802e-02
 -3.6993377e-02
  2.7922947e-02
 -2.8469004e-02
 -1.0436731e-01
  4.2949557e-02
 -7.2307400e-02
  1.9142598e-02
  2.0262316e-01
 -2.0967282e-02
 -1.9576333e-02
 -6.7290515e-02
 -4.1031271e-02
 -5.2251246e-02
  1.6716366e-01
 -1.3166991e-01
 -2.4415612e-02
  7.2013671e-03
 -1.1173614e-01
 -3.9509013e-02
  2.0107016e-01
  1.0064650e-01
  9.2180725e-03
 -1.4989859e-01
  5.9982524e-03
 -2.3223762e-03
 -1.8309832e-02
  3.3163685e-02
 -1.1992670e-01
  3.9566318e-03
  8.5801765e-02
  5.0216667e-02
 -8.2289465e-02
  3.8999766e-02
  8.2832433e-02
 -1.3618654e-02
  1.0785345e+00
 -4.3490540e-02
 -3.0212855e-01
 -1.1914945e+00
  1.2112030e+00
  9.0536016e-01
  2.0078940e+00
  2.9714760e-01
  3.5255052e-02
  8.3918869e-01
 -3.3748165e-02
 -9.9650621e-01
  6.3025951e-01
 -5.3472358e-01
  7.9493925e-02
  8.9330576e-02
  4.7118241e-01
  5.1951990e-02
  1.0824884e+00
  1.9966209e-02
 -8.4835750e-01
  4.0965542e-01
  1.2235799e-01
  2.9273866e-02
  2.7939096e-01
  1.7691568e-01
 -1.3912930e-01
  7.6287717e-01
  1.2341586e-01
 -1.5750494e+00
  1.4398590e-01
  3.4279919e-01
  2.2618747e-01
  1.5176757e-01
  3.9863509e-01
 -3.8704750e-01
  8.4861052e-01
 -1.6231483e-01
 -1.5942838e+00
  1.3740297e-02
  2.8495691e-03
  2.0131068e-01
  3.6923039e-01
  5.8439535e-01
 -1.3659883e-01
 -1.0456131e-01
 -2.1213357e-01
 -5.6457452e-02
 -5.4110521e-03
 -5.5579640e-02
 -2.3451458e-01
 -9.5938243e-02
  1.1877009e-01
  3.3381905e-02
  1.9059782e+00
  2.8605957e-02
 -6.3086975e-01
 -2.5097921e-01
 -3.5165513e+00
 -1.1329198e+00
 -6.6463429e-01
  1.5229602e+00
 -7.9789889e-01
 -6.3407384e-02
 -1.9709341e-01
 -2.5130495e-01
 -4.9069416e-02
 -3.9424144e-02
 -3.9287575e-02
  2.0728979e-02
 -1.0530598e-01
  4.0049016e-02
 -9.6742064e-02
 -2.4976170e-01
 -7.4433401e-02
 -1.6648234e-03
 -1.4752141e-02
  3.6868565e-03
  8.0858488e-03
 -3.1692464e-02
  1.5541431e-02
 -3.6712184e-03
 -2.6299402e-01
 -2.1529749e-02
 -1.0437016e-01
  1.2783623e-01
  4.3496799e-02
 -5.2995875e-02
 -6.4777747e-02
  1.1821508e-02
  1.9493783e-03
 -8.9249372e-02
 -3.6099501e-02
  3.8612649e-02
 -1.5404627e-02
  1.0138885e-01
 -1.0888352e-01
 -5.0686315e-02
 -2.3339997e-01
  1.8703142e-02
 -5.1014118e-02
 -4.1273985e-02
  1.5600279e-01
 -1.0299911e-02
  5.1389769e-02
 -5.4623350e-03
 -4.3266594e-02
  3.2808866e-02
  4.2146140e-01
  8.6942680e-02
 -2.7678916e-02
 -3.1298671e-02
 -5.8955145e-01
 -3.6044139e-02
 -4.1172072e-02
 -4.7170778e-04
  3.6144309e-02
  6.8140198e-03
 -3.7242062e-02
 -9.5214680e-02
 -2.2034062e-02
  6.7256682e-02
  6.6335000e-02
  3.0662457e-02
 -4.2284336e-02
 -1.2882440e-03
 -6.6730217e-04
  8.9182286e-03
  7.9917256e-03
  1.5761119e-01
 -1.5624215e-02
 -3.0770756e-02
 -1.3332379e-01
  1.0152613e-02
 -1.8648744e-02
 -8.6874381e-02
  3.8405020e-02
 -4.0128797e-02
  2.0393249e-02
 -7.5775385e-03
  2.0284040e-02
 -2.1080509e-02
 -2.5702780e-03
 -1.0502500e-01
  1.4850670e-01
  1.6501434e-01
 -7.4857876e-02
  4.2542182e-02
 -8.0393486e-02
 -2.8143434e-02
  5.9818558e-02
  5.0057717e-02
  5.0493840e-02
  1.2643382e-01
  7.0168465e-02
  3.4272388e-02
  1.6159602e-03
 -8.7007061e-02
  7.0538896e-04
  3.7398819e-02
 -9.2497259e-02
 -1.4638571e-02
  1.3507321e-01
 -2.9352512e-02
 -3.7038118e-02
 -1.2087384e-02
  7.9948813e-01
  3.7965197e-02
 -4.0245634e-02
  3.4513813e-02
  4.9698800e-03
 -6.5701962e-02
  7.8351423e-03
  5.5692181e-02
 -2.2863425e-02
 -1.0338765e-01
  2.3028817e-02
 -3.2247023e-03
  3.7391618e-02
  1.8257603e-02
 -4.6540383e-04
  2.6624033e-03
 -7.1011460e-03
  6.5602146e-02
  6.2765554e-03
  3.7585624e-02
 -3.9978549e-02
 -1.1150601e-01
 -4.5109287e-02
  1.5603835e-02
  2.6835045e-02
  2.1252958e-02
 -2.5899699e-03
 -8.3542585e-02
  5.0888188e-02
 -3.1546742e-02
 -2.6145235e-02
 -1.0463315e-01
  2.6413599e-02
 -1.1697457e-01
 -2.6029423e-03
 -2.2862045e-02
  2.2978600e-02
  1.4293659e-01
  6.9951005e-02
 -3.1272631e-02
 -7.0773244e-02
 -2.2670797e-01
 -4.7150727e-02
 -7.8000747e-02
 -5.0628688e-03
  1.5416212e-03
  3.3279408e-02
  3.6460105e-02
 -1.6166544e-01
  7.1358271e-02
  1.1948501e-01
 -2.3466809e-01
  1.3550586e-01
 -3.6779447e-03
 -9.9903401e-03
 -9.0843298e-02
  5.5484403e-02
  5.2786164e-02
  4.1293606e-02
 -1.1123411e-01
  6.4364128e-02
  1.6912189e-01
  6.7356899e-02
  3.9395824e-02
 -1.9650584e-01
  5.1277213e-02
 -1.0764654e-02
 -3.5081595e-02
 -2.2309162e-02
  3.8836703e-02
 -3.7327901e-02
 -7.7648513e-02
 -3.9147224e-02
  8.9486949e-02
 -1.4756021e-01
  7.3048331e-02
  1.8653130e-02
  1.0133311e-03
 -2.0921335e-02
  2.3634203e-02
  2.2166797e-03
  6.4982556e-02
 -8.3139807e-02
 -4.4367788e-03
  1.4705691e-02
  4.1620903e-02
  5.9004151e-04
 -4.5137901e-02
  4.8703749e-02
  1.6502673e-02
 -4.2901106e-02
 -3.5483569e-02
 -2.7126316e-02
 -8.9244783e-02
  1.4460398e-02
 -1.3681024e-01
  9.5254481e-02
  4.3455523e-02
  4.2655583e-02
 -1.2084830e-01
  6.5497920e-02
 -5.0678480e-02
 -9.6088462e-03
  4.2791353e-03
 -6.0099375e-01
  3.2850635e-01
 -2.3303190e-01
  3.6296383e-02
  1.2773416e+00
  3.3140156e-01
  1.8177766e-01
 -3.2954346e-02
 -7.8402299e-01
  3.7573382e-02
 -8.2313307e-03
 -9.5216474e-03
  1.7679548e-01
  5.0250847e-02
  5.7852762e-03
  2.4029098e-02
 -8.8333838e-02
 -4.5424919e-03
  2.2770932e-03
 -5.2457877e-02
 -1.1177044e-02
  1.7415026e-01
  1.4459538e-01
  1.3659174e-02
  1.8897263e-02
  1.2916435e-01
 -1.5854705e-02
  1.7704393e-01
  1.2681907e-01
 -9.7373210e-02
 -8.3154514e-02
  1.7230041e-01
  1.2825301e-02
  1.1496841e-02
  2.2369476e-02
  5.8078729e-02
  3.7867520e-02
 -4.1576415e-01
 -4.9325515e-02
  1.1490504e-01
 -1.4658330e-01
  1.4690923e-02
 -4.8775524e-02
 -1.6052432e-02
  5.4853164e-02
 -5.9655968e-02
  8.9016527e-02
  1.6198136e-02
  3.4100094e-01
  4.0571339e-02
  6.6204354e-02
 -1.0366996e-02
  5.9934128e-02
 -4.5943819e-02
  1.3985534e+00
 -4.3055927e-03
  1.9686568e-01
  1.5310489e-01
 -1.4271201e+00
  3.9416686e-02
 -4.1218296e-02
  1.3867956e-02
 -2.2287216e+00
  2.5450684e-02
  8.3798310e-04
 -3.0312806e-02
 -1.3294484e-01
  1.3774039e-01
 -1.8737931e-04
 -3.5387396e-03
  1.8336734e-02
 -6.1301701e-02
 -5.7344411e-02
 -4.5442607e-02
 -4.5276680e-03
  7.0753366e-02
 -1.7932223e-03
  2.0351727e-02
  1.0381311e-02
 -1.5803549e-02
 -7.2028749e-03
 -2.6709873e-02
  5.7312110e-03
  2.5353640e-02
  6.2568150e-02
  7.1175897e-04
 -5.5455927e-02
 -2.0080335e-02
 -1.3689719e-01
 -3.3666538e-03
  3.4440252e-01
  3.0755002e-02
 -4.2797361e-02
 -6.6094071e-02
  1.9048814e-01
 -6.3202567e-03
 -1.8499403e-03
  5.1937625e-02
 -7.1687493e-03
 -4.0009469e-02
  5.6314506e-02
  9.9996649e-02
  4.9100518e-02
  1.1359364e-02
  2.6118232e-02
 -2.2803716e-02
 -4.6065252e-02
 -2.5937026e-03
  7.7634171e-02
  2.6050666e-02
 -4.7790604e-03
 -1.1430420e-01
 -1.9182403e-02
 -1.3108836e-02
 -4.3904137e-02
 -8.1489682e-03
 -8.0840625e-02
 -1.1419263e-01
  5.2886382e-02
  6.0939282e-02
  1.0351197e-01
  1.2524845e-01
 -1.2990447e-02
 -8.3418302e-02
  5.2978821e-02
 -8.5182853e-02
  4.4477452e-02
  1.9402804e-02
  2.0857111e-02
 -1.7053065e-01
  5.8239639e-02
 -4.2451872e-03
 -1.8207598e-01
 -5.7829149e-02
 -1.3682929e-02
 -8.6001633e-03
 -1.7035656e-02
  3.0014921e-02
  8.1071191e-02
 -3.5282262e-02
  3.0456639e-03
 -1.5740271e-01
  3.9671651e-01
 -7.2889104e-02
  2.8236866e-02
 -1.5544678e-02
  5.9491396e-02
  4.5723397e-02
 -2.1280209e-02
 -1.2052909e-02
 -4.9995143e-02
 -1.2594108e-02
  1.5983023e-02
  9.8122478e-02
 -2.4675928e-02
  5.5246133e-02
  3.3728313e-04
 -1.6402251e-01
  1.9331619e-02
  3.8061652e-02
 -1.4256036e-02
  7.2202906e-02
  4.1132736e-01
 -1.3801184e+00
  2.0954554e+00
  2.6876464e-01
 -2.0655971e-02
 -1.3024524e-01
 -4.6917275e-03
  5.0858162e-02
 -1.0576077e+00
 -1.6467329e-02
 -1.3651441e-01
 -9.6928909e-02
 -4.4957417e-01
  3.2264013e-02
 -9.9546704e-03
 -4.2576355e-01
 -3.2957205e-01
  5.9369508e-02
  7.5010508e-02
 -1.5951656e-01
 -3.5572387e-02
 -3.9878881e-01
  4.9411708e-01
 -2.0476726e-01
 -4.5969421e-01
  1.0568900e-01
 -3.0972460e-02
 -4.8230752e-01
 -3.3175625e-02
 -2.7010573e-02
 -7.1645677e-01
 -2.5699705e-01
 -6.0675412e-01
 -3.9130950e-01
 -5.0054342e-02
  1.5902077e-01
 -2.1445918e-01
 -1.1165576e-01
 -1.8551048e-02
 -1.3083355e-01
 -1.1665051e-01
 -5.8035856e-01
 -2.6868327e-02
 -4.0803213e-02
 -8.5946418e-02
 -1.8415217e-01
 -5.2215800e-02
  9.8379649e-02
 -1.2614636e-01
 -1.3321881e-01
  2.3504184e-01
  3.5297908e-02
  2.2916270e-02
  7.1040891e-02
 -3.5273603e-01
 -1.8330224e-01
 -4.7495872e-01
  1.0462594e-01
 -1.2258140e+00
  2.3075600e+00
 -8.6165142e-01
 -2.2962244e+00
  2.7644627e+00
 -7.8584082e-02
 -6.3505733e-01
  7.2200954e-02
 -3.8495088e-01
 -2.6270333e-01
  3.9925918e-02
 -5.3283423e-03
  5.2015060e-01
 -1.9978279e-01
  2.4492683e-01
  1.6918784e-01
  1.8717313e-01
 -2.1888198e-01
  4.5315182e-01
 -8.7037124e-02
 -1.2002684e+00
 -2.7032784e-01
 -1.2745562e+00
 -2.9420868e-02
  2.0110512e-02
  4.7324565e-03
 -4.9063578e-01
  3.0443650e-01
  2.1586049e-02
 -1.1521983e+00
 -8.1175588e-02
 -8.4807974e-01
 -5.4374384e-03
  8.3404101e-02
  2.0743823e-01
 -1.6464387e-01
  4.8621500e-01
  1.2821855e-02
 -3.7948251e-01
 -3.0312032e-01
  1.1419882e-02
  1.2559333e-02
  7.6839700e-03
 -1.0582894e-01
  1.6493870e-01
 -4.6797603e-02
  9.9615268e-02
  5.7446364e-02
  1.1244795e-01
  2.6257640e-01
  2.8184793e+00
  6.5329693e-02
 -8.9890920e-02
  4.8470381e-03
 -1.1846641e+00
 -7.7457732e-01
 -1.4344904e-02
  1.0759455e+00
  1.5297119e-01
 -6.7593433e-02
  2.0383370e-01
  1.1884835e-02
  9.5197283e-02
 -2.8348358e-02
  6.0075231e-02
 -1.7765373e-02
 -8.9641638e-02
  1.1356467e-01
 -9.1633257e-03
 -2.2145750e-01
  4.9945593e-02
 -1.3813292e-02
 -3.1744215e-01
 -1.8065532e-01
  5.2007016e-02
  5.1795160e-03
 -3.2069138e-01
 -5.3403009e-02
  5.8079539e-03
  9.8032877e-02
 -2.7291873e-01
  5.2710092e-03
 -2.0165935e-01
 -2.3453072e-02
 -2.9231643e-02
 -1.3750641e-01
 -4.0166765e-02
 -5.4161709e-02
  2.5622975e-02
  1.6050874e-01
 -6.6766436e-03
  1.0581619e-01
 -1.0101162e-02
 -1.0104655e-01
 -5.7950463e-02
 -1.7425478e-02
 -4.6073116e-02
 -1.5141503e-03
  1.0898723e-01
 -1.3684912e-01
 -3.1156819e-03
  2.5172569e-02
 -1.4044149e-02
  1.6459417e-01
 -4.7951454e-01
  4.4447854e-01
 -5.5846810e-01
  3.6329213e-01
  5.6900507e-01
  1.9534031e+00
  1.0246199e+00
 -3.0973939e-02
  3.1721419e-01
 -3.2268379e-02
 -1.2931717e-02
  4.5125946e-01
  2.2881252e-01
  2.7306017e-01
  3.1961091e-02
  6.0275435e-01
 -2.2159861e-02
 -3.1523135e-02
  1.2280558e-02
 -1.6918659e-01
  2.0523788e-02
  5.6074732e-03
  8.6828232e-01
 -1.5465763e-01
  2.3727773e-01
  3.0561075e-01
  7.2419993e-04
  4.6326958e-02
 -4.4724047e-02
  4.3243792e-02
  1.2075660e-01
  4.4681785e-01
 -9.9315867e-02
  4.2144436e-01
 -1.7149080e-02
  3.1188441e-02
  6.6618031e-01
  1.1968858e-02
  6.8531789e-02
  3.4926299e-02
  5.1711541e-01
  1.6057588e-01
  1.0676735e-01
 -5.1425904e-01
  2.0698898e-01
 -6.0089016e-03
 -9.6233986e-02
 -7.3044501e-02
 -3.9729372e-02
  5.8925942e-02
  9.0498589e-02
 -6.8083242e-02
 -3.1250626e-02
  4.3335754e-02
 -3.1217668e+00
 -7.8357768e-01
 -4.3529099e-01
  1.8887877e-01
  8.6244345e-01
  1.1142269e+00
 -1.0878655e-02
 -9.3231618e-01
 -1.8685377e+00
 -4.4913236e-03
  2.9090304e-02
 -2.4933916e-02
 -4.8591129e-02
  2.5602208e-02
 -8.2148805e-02
 -7.6977901e-02
  5.0415955e-02
 -3.6599874e-01
 -6.6474052e-03
  2.6717927e-02
  5.7661679e-02
 -3.8023326e-01
 -7.2440818e-02
 -1.9912885e-01
 -2.7671269e-01
  3.4699552e-02
 -2.3487156e-02
  5.8305647e-02
 -2.1271617e-04
  5.0280951e-02
 -3.1881884e-01
 -2.1764508e-02
 -3.8225925e-01
 -1.7603252e-02
  6.2238479e-01
 -4.9950969e-01
 -1.3556017e+00
 -1.9696942e-01
  1.2215784e-01
 -1.0235978e-01
 -2.2925779e-01
 -2.9778367e-01
 -1.8670563e-02
  4.2476147e-02
 -3.5506061e-01
  6.6832140e-02
 -4.0761098e-02
  2.3586706e-03
  5.5790275e-02
  5.8854964e-02
 -9.7889975e-03
 -4.7666375e-03
 -7.3312722e-02
 -1.3123569e-01
 -3.2765979e-01
  1.2095382e-02
  2.5738680e-01
  2.0290187e-03
 -1.7415202e+00
 -2.0550184e+00
 -8.4665704e-01
  1.1754208e-02
  1.8752301e+00
 -1.5882455e-01
 -4.9033359e-02
 -3.2162808e-02
 -3.2703888e-01
 -1.2248486e-01
  6.5055050e-02
 -1.4438391e+00
  8.2087237e-03
 -1.2872462e-01
  1.8485276e-01
  1.2623294e-01
 -7.2821945e-02
 -5.6737508e-03
 -2.3802878e-01
  1.7056009e-02
 -1.9522043e+00
 -4.8668478e-03
 -1.6354857e-01
  2.4218843e-03
 -9.2851207e-02
 -3.5626478e-02
 -7.7088308e-03
 -1.6924313e-01
  9.6861320e-03
 -2.5301986e+00
  4.6674973e-01
 -5.9160209e-01
 -4.7276959e-02
  1.0522625e-01
 -1.5701593e-01
  2.8242934e-02
  9.4364166e-02
  4.2279102e-02
 -1.0492249e+00
  5.2285194e-01
 -5.3666085e-01
  4.6368465e-03
 -2.1081643e-02
 -3.8285777e-02
 -6.0243355e-03
 -1.9255006e-01
  5.4727219e-02
 -6.9078702e-01
  1.9923529e-01
  1.1427257e-01
  6.5525189e-02
 -4.4780952e-01
  2.2625317e-01
  8.2369395e-02
 -3.3078056e-02
 -2.9583818e-01
 -1.7032319e-01
 -4.7812614e-01
  1.4953647e-02
  8.0089569e-02
 -1.0907664e-03
  1.4792921e-01
  2.5529647e-02
  1.5721064e-02
 -2.0441580e-01
  3.1725608e-02
 -7.0065595e-02
 -5.0106443e-02
 -3.3895865e-02
  6.0542576e-02
  3.8242511e-02
  5.7337026e-04
 -2.0103715e-01
  5.4406356e-03
 -1.6829908e-01
 -2.7199844e-02
  4.4918869e-02
 -1.2288881e-02
  3.9211560e-02
  5.3685613e-02
 -1.0483440e-01
 -4.5421891e-02
 -4.6490631e-03
 -2.8940979e-01
 -2.2640312e-01
  3.0248206e-02
  1.1129407e-02
 -2.7013395e-02
  1.0151149e-02
  8.4959537e-02
 -9.3904011e-02
 -1.0442029e-01
 -1.0539532e-01
  9.4409361e-02
 -9.7719423e-02
 -3.7266947e-02
  3.2706764e-02
  6.0122263e-02
  6.7664284e-01
  1.8732712e-01
  2.9977885e-01
  2.0421913e-01
 -1.6740754e-02
  9.0973210e-03
  9.6498394e-01
  1.0871946e+00
  3.1400514e-01
  1.0527966e-01
  1.0027367e+00
 -6.9162810e-01
  1.8822207e-01
 -3.7807727e-01
 -5.7721758e-01
  9.9502087e-02
  8.9614496e-02
 -7.6408558e-02
  6.9391124e-02
 -2.8394058e-02
 -3.1839065e-02
  7.5376686e-03
 -2.7563009e-02
 -2.0338827e-01
  1.9326067e-01
 -2.0792225e-02
  4.7476154e-02
  2.2945273e-01
 -8.2454875e-02
  3.3919856e-01
 -5.9509571e-03
  4.2977449e-01
 -3.2383088e-02
  6.7505606e-02
  2.4627034e-02
  1.4738950e-01
  2.8779214e-02
  2.8831864e-02
  3.9302322e-01
  6.9733834e-01
 -1.4313697e-02
 -2.6509488e-01
 -1.5876550e-02
 -5.6370360e-01
  1.0051249e-01
 -5.3065319e-02
  6.9783151e-02
  1.2859594e+00
 -2.0119263e-02
  7.2924238e-01
 -8.0468878e-02
  8.8550467e-03
  2.1409477e-01
 -2.8405678e-02
  3.5730246e-02
 -1.5592375e-01
  5.8375709e-02
 -6.4626120e-02
  1.8954793e-01
 -1.0405732e-02
 -2.6162620e+00
 -1.2801306e-01
 -8.8310951e-01
 -9.0101677e-01
  1.5700375e+00
 -1.2378304e-01
 -1.3673435e-02
 -1.6105721e+00
 -1.0957820e+00
  7.0801830e-01
 -1.2746997e-01
  1.2332170e-01
  1.1006373e-01
 -8.2093537e-02
  5.4919593e-02
  2.6245669e-01
  5.7709879e-01
 -1.6937530e-02
  2.1527179e-01
 -8.7682284e-02
  7.5400323e-02
  1.1258760e-02
 -1.5126377e-01
 -1.7727739e-03
 -8.4311198e-03
  5.6936327e-02
  3.1653368e-03
  1.5536904e-01
 -3.5778689e-01
 -8.9257918e-02
 -4.8774410e-02
  3.0010694e-01
  2.6098156e-01
  2.9732341e-02
 -7.6435454e-02
  7.8252584e-02
 -3.0417842e-01
 -5.7685179e-01
  1.4172102e-02
  9.9530676e-03
  7.2795993e-01
 -9.5279686e-02
  1.9854861e-01
  9.5486209e-02
  2.5238618e-02
  3.3083480e-02
 -9.3304999e-02
  2.3231259e-01
 -9.3072735e-02
  1.6702019e-01
  3.9503917e-02
  4.6122678e-02
  8.3927542e-02
 -4.7305543e-02
  6.0081434e-02
 -6.3449092e-02
 -5.2573051e-02
 -1.7736456e-01
  3.7272811e-01
 -2.5967899e-01
  8.7885106e-01
 -4.8710056e-02
 -3.6264467e-01
  1.7819592e-01
 -1.5583863e-02
  5.7295012e-01
 -8.9926086e-02
 -1.8238036e-01
 -1.2670540e-02
 -8.2274526e-02
  3.4269262e-03
 -1.6022773e+00
 -1.2101456e-01
  6.8199992e-01
 -1.2649828e-01
  5.8075231e-01
 -8.7679669e-02
  4.8708132e-01
 -4.5457046e-02
  5.2454844e-03
 -9.4073159e-01
  4.1627884e-02
  3.3835241e-01
  1.1734244e-01
  6.6554323e-02
  8.7563433e-02
  9.0522803e-03
  1.2341201e-01
 -1.6928963e-02
 -1.7674223e+00
  4.3966368e-02
 -4.3602590e-02
  1.7559916e-01
  3.2085896e-01
  5.1337674e-02
  1.0804866e-02
  5.7483562e-03
 -1.9802707e-01
 -1.3182104e+00
  1.6604859e-02
  6.4278737e-02
 -8.5815974e-02
 -4.0147714e-02
 -1.3668832e-01
  4.3525085e-02
 -4.2855036e-01
  3.3750266e-02
  8.4949231e-01
 -1.3953537e+00
  3.8266137e-01
 -6.1466467e-01
 -5.0541673e-02
 -3.1885248e-01
  1.1269953e+00
  9.9482954e-01
 -3.0506402e-01
 -6.4929569e-01
 -5.9798386e-02
 -4.7894605e-02
 -1.5356871e-02
  4.2123403e-02
  4.5012063e-01
 -1.9408150e-02
 -1.8265320e-01
 -1.1935839e-01
  6.2928247e-01
 -6.8178490e-02
 -4.8573688e-02
 -4.4317201e-02
  3.9632067e-02
 -4.9043334e-01
  2.8610213e-02
 -1.8713566e-02
  2.6750989e-02
 -3.1162281e-02
 -1.4829745e-02
 -2.8664228e-01
  1.3440326e-03
  3.9072920e-02
 -6.0878998e-01
 -1.9238241e-02
 -3.7524262e-01
 -1.9528508e-01
 -2.4974306e-01
  2.2053244e-02
 -1.2144119e-01
  4.5429327e-02
  4.9601045e-02
 -1.1414124e-02
 -1.7234199e-02
 -1.2422401e-02
 -7.5774603e-02
 -4.9518917e-02
 -3.5807088e-02
 -5.0125443e-03
 -8.8316187e-02
  6.3594483e-02
 -8.2557201e-03
 -4.4764742e-02
  6.6513777e-02
 -6.7668796e-02
  7.5397454e-02
  5.2072801e-02
 -8.4488928e-02
  1.4861262e-02
  3.0321579e-02
 -8.6795330e-02
 -1.3001792e-02
 -6.8029061e-02
  7.0578441e-02
 -1.1731649e-02
  1.6419245e-02
  2.2752915e-02
  4.7489870e-03
 -1.6033767e-01
  1.3661297e-01
  2.5068296e-02
  7.6982766e-02
  6.9389731e-02
  9.8144971e-02
  3.2003880e-02
  1.7097357e-01
 -1.0312054e-01
 -5.7011824e-03
 -7.1700193e-02
  1.2810155e-02
 -4.6678886e-02
  3.2838877e-02
  3.5249252e-02
 -9.0516686e-02
  3.5629462e-02
  1.9589646e-02
 -2.3889184e-02
  3.4208398e-02
  1.3314685e-01
 -2.7032478e-02
  1.5105589e-02
  2.2820175e-02
 -1.6331618e-01
 -5.0863124e-02
  7.8000255e-02
  1.4225990e-02
 -7.5684272e-02
  7.8905188e-02
 -1.6198797e-02
 -1.6537092e-03
 -6.4499177e-02
  7.0586940e-03
 -4.8835727e-04
 -1.6592197e-02
  1.7156672e-02
 -8.2157627e-03
 -6.8186976e-02
  2.5304332e-01
  2.3055112e-01
 -3.8803644e-02
  1.2941009e-01
  1.3098736e-01
 -1.7568618e-01
 -7.9338491e-02
  9.4876975e-02
 -1.9036533e-02
  2.3658848e-01
 -2.3076169e-02
  1.3783604e-01
  1.5343551e-02
  3.0067129e-02
 -7.9951696e-03
 -1.0765623e-01
  1.1158672e-02
 -1.2892491e-01
 -5.6274466e-02
  1.4933923e-02
 -7.0686825e-02
 -5.8822699e-02
  5.6416884e-02
  3.4419503e-02
 -4.9823642e-02
 -2.2792812e-02
 -9.0096541e-02
 -3.5242354e-03
  1.7852059e-02
  3.0614711e-02
  7.8341318e-03
  6.8313861e-03
  1.3197105e-02
  4.7961771e-02
 -6.9731725e-03
  6.8263551e-03
 -2.5771079e-03
  7.5216308e-02
  2.5968472e-02
 -1.9130406e-03
  8.3756104e-02
  6.7480855e-02
  1.0526162e-01
 -5.2377410e-02
  3.3905990e-02
 -1.0709388e-01
  2.1132059e-02
  1.4812347e-02
 -3.5581447e-02
  6.7737348e-02
 -7.6305494e-02
 -4.3916799e-02
 -3.6830962e-02
 -1.5125363e-02
  3.2761157e-03
  2.2080833e-02
  6.8203419e-02
  1.1913076e-01
 -1.0836552e-01
  1.2260593e-02
 -3.8877122e-02
 -5.0118316e-02
  4.6625379e-02
 -1.4076737e-02
 -2.0786342e-01
  4.5623451e-02
 -4.0285736e-01
  9.8171756e-03
  4.5914631e-03
 -5.2951422e-02
 -1.9503798e-02
 -1.8233778e-02
 -5.1476009e-02
 -1.7453554e-01
 -8.7823965e-02
  1.2423767e-02
  1.1092708e-02
  1.1555821e-04
  8.5564489e-03
 -3.3084676e-02
 -3.6937308e-02
 -2.6158729e-01
 -2.4146067e-01
  1.0186045e-01
 -2.3126282e-02
  6.7082401e-03
 -2.8080668e-02
  7.8668520e-03
  5.7456072e-02
  5.8210254e-02
  2.8001759e-02
  2.4260208e-03
 -1.9201968e-02
  2.4195770e-02
 -6.6562533e-02
 -3.8979920e-03
 -3.4239043e-02
  1.0074886e-02
 -3.0691214e-03
  1.0038784e-01
 -2.8192975e-02
 -2.9353146e-03
 -2.8442893e-02
  2.7337063e-02
 -1.2570772e-02
  4.0768451e-04
  1.4047739e-01
  2.0013543e-02
 -4.6280988e-02
  8.3308667e-04
 -4.4173811e-02
 -9.5834546e-03
 -1.4184574e-03
 -1.6021391e-02
 -9.5029354e-02
  1.2188292e-02
  1.0799269e-01
 -2.1958893e-02
  6.1723500e-02
  1.0625428e-01
 -6.5440290e-02
  1.0583024e-02
  1.0786205e-01
  2.3641432e-02
 -4.5962922e-02
 -1.1131075e-02
  1.3702648e-02
  2.3541863e-01
  7.0743943e-03
  1.0196226e-01
 -4.2389661e-02
 -3.1888399e-02
  7.1135208e-02
  1.5206710e-01
 -1.1516199e-01
  4.1007705e-02
  8.2210526e-02
 -2.7724996e-02
  1.6821884e-01
 -2.5766101e-02
 -4.8568729e-02
 -6.6258237e-02
 -4.5735855e-04
 -5.8309861e-02
  1.4093145e-02
  3.2048835e-03
  4.7944628e-02
 -7.5225392e-03
 -1.9903746e-03
 -2.9062346e-02
  2.6892371e-02
  2.3462265e-03
  1.2100328e-01
  1.0339160e-02
  6.5118663e-02
 -1.1738944e-01
  9.0530492e-02
  6.5924026e-02
 -8.6089922e-03
  3.7227385e-02
 -1.8955556e-01
  6.0828775e-02
  1.4344437e-01
  1.5353767e-02
 -7.6290064e-02
  2.9246936e+00
  4.1945018e-02
 -1.9833524e-02
 -1.0494140e-01
 -3.2388735e+00
 -1.0765204e-01
 -8.4747216e-03
  4.9331669e-02
  6.9273924e-03
 -9.6794970e-02
 -2.2310157e-01
  1.3606545e-02
 -1.7775632e-02
  7.7795602e-02
 -4.6412181e-03
 -6.3425489e-02
  6.6448875e-02
 -1.3772079e-01
 -2.9542051e-02
 -1.9966178e-01
 -5.0687905e-02
 -4.1305188e-02
 -9.3049742e-02
  1.3856390e-02
 -5.7211097e-02
  7.0375130e-02
 -4.0676642e-02
 -4.5258790e-02
 -1.1626217e-01
 -1.1904509e-01
 -3.8867567e-02
 -2.8215533e-01
  3.8792409e-02
 -1.9098822e-02
 -5.0183333e-02
 -3.8051952e-02
  7.9998270e-02
  6.8258755e-03
 -4.4489820e-03
  5.8962855e-02
  5.3389888e-02
 -2.5227394e-02
  9.5109120e-02
  9.5040396e-02
 -2.6887488e-02
  1.3713506e-01
 -5.0375696e-02
  1.0510515e-02
  2.8782278e-01
 -4.7341444e-02
  3.1313948e-02
 -2.6748616e-02
 -4.4441942e-02
 -2.0320410e-02
  2.5804832e+00
 -1.7332636e-02
  6.4320885e-02
 -8.4082052e-02
 -5.2672386e-01
 -1.4881688e-01
 -6.3163862e-02
 -1.3407108e-01
 -7.2397523e-02
  6.8521544e-02
 -9.6562430e-03
  3.1964857e-02
  2.8164651e-02
  5.7757173e-02
  2.4412592e-01
 -1.9395740e-03
  6.0724851e-02
 -1.2878478e-03
 -1.4480068e-02
  3.2181323e-02
  3.6714986e-02
  8.5722625e-02
  4.1001040e-02
 -1.1159930e-01
  3.3006087e-02
 -3.4600869e-04
 -7.8670226e-02
  5.0467733e-02
 -5.6811560e-02
  3.9852962e-02
  6.2880404e-03
  1.1922406e-02
 -1.1766574e-01
 -1.4407723e-01
 -5.8043599e-02
 -5.3863019e-02
  9.9309944e-02
 -7.9105325e-02
  3.5582371e-02
 -8.4841870e-02
  4.3448262e-02
 -3.1143297e-02
 -1.5947642e-03
 -1.7863942e-02
 -9.8442003e-02
  2.7695056e-02
 -4.5696337e-02
  1.1119653e-02
 -2.0790286e-03
 -4.4131204e-02
 -3.9382521e-03
  3.8826596e-02
 -5.9754841e-02
  9.8647196e-03
  3.0806386e+00
 -8.0532273e-03
  1.3474036e+00
  4.8174492e-01
 -9.4851297e-01
  3.4378073e-01
 -1.8166264e+00
  3.0200577e+00
  2.4083354e+00
 -1.8299855e-02
 -4.4449892e-02
  4.5810405e-02
 -2.8663343e-01
 -2.9166207e-01
  9.5440391e-03
 -9.4344300e-01
 -4.2831454e-01
 -7.4452735e-02
 -5.6672331e-02
  3.3935302e-01
  3.1634472e-02
 -8.4752776e-02
  3.0340941e-03
 -1.5762292e-01
  4.0034712e-03
 -1.3786745e-02
  1.8953672e-01
 -2.1462698e-01
  6.2616274e-02
 -2.7944637e-02
  4.2743247e-02
  1.7972769e-01
 -1.9291015e-01
 -3.7600243e-01
 -4.3117073e-01
  3.0180363e-02
  1.7311661e-01
 -1.1006613e-02
 -3.3156518e-02
 -4.5013115e-01
 -6.3945234e-01
 -2.8466395e-01
 -1.3648517e+00
 -7.9207933e-01
  1.9023281e-01
 -1.9231405e-02
 -2.9672569e-02
 -1.9904044e-02
 -2.2376213e-02
 -1.0051728e-01
  2.6243430e-02
  3.1104323e-01
  2.4611978e-02
 -1.6184710e-01
  2.1028051e+00
 -5.8138542e-02
  5.4503355e-02
 -8.0166286e-01
 -6.6571927e-01
 -1.4299159e+00
 -2.0484118e+00
  2.7326083e+00
  1.4302087e+00
 -6.5444487e-01
  1.6283789e+00
 -2.4187627e-01
 -3.2543930e-01
  5.3235608e-01
 -8.0747835e-02
  2.6867935e-02
 -7.0256788e-01
  6.6050120e-02
  1.5663760e-02
 -7.4492857e-02
 -3.8901675e-02
  1.5868433e-02
 -5.7262766e-01
 -1.2609039e-01
  4.0014923e-02
 -6.4441401e-01
  6.8905018e-02
 -2.1966818e-01
  5.0937571e-02
 -1.2533410e-02
  8.9925183e-03
 -6.8096828e-01
 -1.4292260e-01
 -2.1822864e-02
 -8.0954927e-01
 -8.0421746e-02
 -6.1150147e-03
  4.9106616e-01
  1.2301922e-01
  8.7519087e-02
 -2.4741112e-01
  5.1755521e-02
  1.9256987e-02
 -5.3128070e-01
 -1.8263765e-01
  3.9412864e-02
 -3.0135059e-01
 -4.4871368e-03
  5.9032477e-03
  7.6787854e-03
 -1.8815763e-02
  1.2591905e-02
 -5.2902014e-03
 -3.3691708e-02
  1.7400893e+00
 -4.6009675e-02
  2.1869984e-01
 -1.0327068e-03
 -2.7943000e-01
  2.0706270e-02
 -5.4150414e-02
 -6.0523100e-02
 -4.9729727e-02
  7.7481784e-02
 -2.3736258e-04
  2.8025517e-03
  8.3914824e-02
 -1.6051260e-01
 -3.9800379e-02
  1.4857115e-02
  1.9794413e-01
  1.4128724e-01
  1.0748615e-01
  2.2796193e-02
 -1.2425455e-01
 -1.2765244e-02
 -1.2141180e-01
 -1.3860746e-01
 -3.3746487e-03
  3.1257056e-02
 -2.2964184e-01
  1.9132011e-03
 -5.1331896e-02
 -3.9128610e-03
  3.1548971e-03
 -1.9696011e-01
 -5.7113260e-02
  2.6702068e-03
 -3.7288725e-02
 -1.2086418e-02
 -9.9708162e-02
 -1.5608573e-01
  1.9095929e-02
  2.2058632e-02
 -1.6002093e-02
 -2.5345773e-02
 -4.2965751e-02
  2.1811690e-02
 -9.8194614e-02
 -1.0465839e-01
 -4.3024261e-02
  5.8257576e-02
  9.0720793e-03
  8.6487196e-02
  3.4957778e-02
  2.6665194e-02
 -2.2613244e-02
 -1.5812537e-02
 -7.4342519e-02
 -8.2949787e-02
 -1.7438173e-02
 -1.6611618e-01
  8.4746294e-02
 -2.8244479e-02
  5.3575896e-02
  4.6569128e-02
  5.5535387e-02
  1.5424722e-01
  9.2261039e-02
  7.7208132e-02
 -2.5536155e-02
 -1.2553010e-02
 -3.6618322e-02
  4.0838722e-02
 -1.2365445e-02
  6.1190277e-02
  3.9486006e-02
 -3.4100369e-02
 -1.6710246e-03
  4.5534715e-02
 -8.1831217e-02
 -1.2133172e-01
  1.0987636e-02
  3.5837535e-02
  1.8542411e-02
 -6.8792015e-02
 -1.5218467e-02
  8.7590337e-02
 -6.4824387e-02
 -1.2248595e-02
 -4.6368178e-02
 -3.8045356e-03
  2.6627021e-02
  1.1642092e-02
 -3.1458974e-02
 -1.3675729e-02
 -8.2132416e-03
 -1.1693678e-01
  7.2173327e-02
  1.7958824e-02
 -1.2944983e-01
 -2.1129246e-01
  5.6608948e-03
  8.4570244e-02
  2.0145578e-02
 -6.5513343e-02
  6.3162290e-02
  2.0190319e-02
 -5.2280050e-02
 -5.5871330e-02
  2.8003858e-02
 -3.8677990e-02
 -9.7533045e-03
  5.9567016e-02
 -3.1720769e-02
  5.9937514e-02
 -4.2369757e-02
  1.5423827e-02
  7.5898496e-03
 -5.4746658e-02
  4.1635200e-02
 -7.8791037e-02
 -6.3625090e-02
  3.9044108e-02
 -6.9549918e-02
 -5.2345660e-02
 -3.3939146e-02
  1.5604013e-02
  3.2592960e-02
  1.0467067e-01
 -8.6617917e-03
  6.8684667e-03
 -5.6082629e-02
 -5.6296978e-03
 -1.1094370e-01
 -1.7689539e-02
  4.8889317e-02
  4.5550492e-02
 -8.9478962e-02
  4.4365212e-02
  1.5428999e-02
 -2.3922494e-02
 -1.0927906e-02
  1.9427969e-01
  7.5277634e-02
  7.1808159e-02
 -3.2593805e-02
  5.4757681e-02
 -3.8623206e-02
 -3.9949551e-02
 -7.5044833e-02
 -1.2290628e-01
  3.8908679e-02
 -1.7762542e-02
  3.6494322e-02
 -1.3878018e-02
 -7.2363146e-02
 -2.7279276e-02
  1.3069061e-02
  4.6216901e-02
  1.8487711e-02
  9.4821446e-02
 -3.1604111e-02
 -1.9144386e-02
  1.0970643e-01
  1.0461100e-02
 -5.6782030e-02
 -2.3579811e-01
  1.2385802e-01
  1.5798333e-01
 -3.4357496e-02
 -4.4630982e-02
 -1.1884670e-02
  7.9169072e-02
 -3.3229347e-03
  4.5690421e-02
 -5.9051856e-02
 -1.6773362e-01
  2.4555687e-02
 -2.6221352e-02
 -2.4743680e-02
 -5.4947052e-02
  3.6802582e-02
  1.0289301e-01
 -2.2325141e-02
 -6.7698911e-02
 -3.2508768e-02
 -4.5392688e-02
 -2.9202669e-03
 -2.4561295e-02
  5.0815891e-02
 -4.9257100e-02
  2.1932682e-02
 -2.2461275e-03
  5.3996518e-03
  9.0475790e-02
  3.4607813e-02
 -2.6386399e-02
 -2.0199046e-03
 -7.0067704e-02
  1.4219205e-02
 -2.7722365e-03
 -1.3235202e-01
 -6.9578841e-02
 -9.5578976e-02
  4.9111545e-02
  4.2471208e-02
  1.9251823e-02
  8.2641810e-02
 -3.5324242e-02
 -7.0315719e-02
  4.4016489e-03
 -1.4941210e-01
 -3.2118853e-02
  1.6932927e-02
  1.5382101e-01
  1.8746950e-02
  2.2727996e-04
 -4.1983705e-02
 -5.8097683e-02
 -6.0440177e-01
 -1.3594846e-01
  1.5528575e-01
 -6.1684210e-02
 -3.4399220e-01
 -2.1202680e-02
 -9.1500923e-02
 -1.9814356e-01
 -4.7668308e-02
 -3.1960625e-03
  1.1136495e-02
 -2.1960173e-02
 -1.9745030e-02
 -5.8631748e-02
  3.3155620e-02
 -5.1694275e-03
  1.0076634e-01
 -3.1458199e-02
  9.5066074e-03
  2.4267297e-02
 -9.8810773e-03
 -2.3290080e-01
  1.3657084e-01
  4.8245247e-03
  2.4377720e-03
  9.2872813e-02
  5.2566528e-02
 -9.4618686e-03
  4.0630143e-02
  2.2980474e-02
 -6.5881051e-02
 -2.4679869e-02
 -4.4794893e-03
  1.2190881e-02
  3.3482211e-05
  1.1389143e-01
  4.1102089e-02
 -4.8334752e-03
 -1.6170019e-01
  2.2456365e-02
 -1.6285802e-01
 -3.5167959e-02
 -1.0142135e-01
  4.3110926e-02
  2.4284396e-02
  6.7202095e-04
 -1.0257573e-03
  4.5236703e-02
 -2.5083497e-03
 -3.0899355e-03
 -7.5516112e-02
 -6.0204859e-03
  2.8569978e-02
  1.3470434e-02
  1.4482615e+00
 -5.1230353e-01
  3.3398185e-02
 -1.8018456e-03
 -1.2166071e+00
 -7.4751176e-02
 -4.6393521e-02
 -1.6570781e-01
  5.3973952e-03
  2.2384824e-01
 -9.3319327e-02
 -2.4337955e-02
 -3.5200767e-02
  1.4314337e-02
  1.7784279e-02
 -1.2455027e-01
  8.6367548e-02
 -4.8027538e-02
  1.9135761e-01
  3.3315822e-01
 -1.8105834e-03
 -6.1388899e-02
  5.3910005e-01
  6.1977836e-03
 -4.8530389e-02
  3.8679030e-02
 -6.3659161e-02
  2.6411396e-01
 -3.8801167e-02
 -1.2702904e-02
  2.0674402e-03
 -1.4826430e-01
 -3.5369687e-02
 -2.2437120e-02
 -9.9270672e-02
 -1.1540695e-01
 -1.2885265e-01
 -3.3995864e-01
 -1.8539658e-01
 -1.8037140e-01
 -3.6609262e-02
 -7.4267775e-02
  4.4317089e-02
 -2.8743700e-03
  5.2078467e-02
 -4.1551981e-02
 -4.6800885e-01
 -1.0459961e-02
 -2.5607279e-02
 -9.0710084e-05
  7.5571664e-02
 -8.1447616e-02
  1.5540216e-03
 -1.0381550e-01
  9.1466898e-01
 -1.9334432e-01
  9.9673271e-01
  1.9463225e-01
 -3.7234727e-01
 -6.3618410e-01
 -3.3425975e-01
 -5.1862143e-02
 -2.2067327e+00
  3.4556657e-02
 -1.4672678e-02
  6.9251060e-01
 -1.3695709e-01
  1.3784622e-01
 -6.2428182e-01
 -9.5906377e-02
  5.6350917e-01
 -3.4255292e-02
 -6.6142774e-01
  1.1885395e-01
  3.6902201e-01
 -7.3169309e-01
  4.0466943e-01
 -7.0571202e-01
 -1.4758974e-02
 -1.3717872e-02
  6.2166542e-02
 -6.1384362e-01
  6.9106877e-02
  5.2272953e-02
 -1.5415834e-01
  7.1760446e-01
 -7.8321433e-01
 -6.0620245e-02
 -3.1543168e-01
  8.4495116e-03
 -1.2576485e-01
  6.3663179e-01
  2.8289175e-01
  6.8441756e-02
  4.6200922e-01
 -1.2992258e+00
 -4.7019005e-02
 -9.0711109e-02
  6.2478073e-02
  1.1298545e-03
  7.5815044e-02
  4.3173525e-02
  2.3129565e-01
 -1.5365566e-01
 -1.1181598e+00
 -3.1830832e-02
 -5.7283524e-02
 -1.3307990e-01
 -7.7256113e-02
  1.6416678e-01
 -3.1571001e-02
 -5.3363141e-02
 -2.5381163e-01
 -1.8224132e-01
  1.0234880e-01
  1.5553812e-02
 -8.6566821e-02
 -1.8145436e-02
  1.2367869e-01
  6.2796250e-03
  1.0387542e-01
  4.3501459e-02
 -1.6541893e-02
 -2.3020454e-02
 -1.4074522e-01
  6.7115679e-02
 -2.1496449e-02
  1.7697698e-02
 -6.9817780e-03
  8.2428753e-02
 -7.3006898e-02
  5.0339468e-02
  1.0985616e-01
  4.0249627e-02
 -1.0431551e-01
 -1.2724406e-01
  4.4180476e-04
  2.5355229e-01
 -1.5887560e-02
  1.0348585e-01
  1.0072901e-01
  1.6701710e-01
 -1.7651549e-02
 -1.2140869e-01
  8.8353544e-02
 -3.3956118e-02
 -2.1465234e-02
 -2.8916515e-02
  7.8036666e-02
  1.2692356e-01
  1.6939399e-01
 -2.3155003e-03
  4.7668822e-02
  4.4402968e-02
  6.8919942e-02
  3.7651870e-03
  3.1409416e-02
 -1.8004532e-01
  2.4563054e-02
  4.2038341e-03
 -7.2447523e-02
  1.0997537e-01
 -1.1525890e+00
 -4.9178886e-01
 -4.6093139e-01
 -5.1693118e-01
  2.8144962e-01
  1.5670410e+00
  9.4253993e-01
 -5.9276289e-01
  3.7626606e-01
  6.7213780e-01
 -5.9625980e-02
  2.4446455e-01
 -4.1424464e-03
  3.5918173e-01
  1.5573956e-01
 -7.3739111e-02
  6.9029355e-01
 -1.2711309e-01
  1.7554500e-03
  2.5618973e-01
 -2.5986366e-02
  2.4738310e-01
  9.9250597e-01
  2.4410337e-03
 -2.7121548e-02
  7.9988283e-01
 -4.7369380e-03
  2.0108460e-01
  1.5236758e-01
 -5.8910247e-02
 -1.2461099e-02
  8.5505474e-01
 -1.7546002e-02
  1.1948708e-01
  1.4845514e+00
  4.3287035e-03
  9.0049896e-03
  4.0775606e-01
  2.1595614e-02
  1.6511132e-01
  5.0809193e-01
  2.6408559e-01
 -2.3624524e-02
  3.1606355e-01
  8.4379055e-02
 -3.4249991e-02
  1.7434402e-01
 -2.7318697e-02
  1.0542776e-02
  1.4972310e-01
 -1.1621673e-01
  6.3620448e-02
  3.4711272e-02
  1.0403968e-02
  2.1878991e-01
 -8.9565086e-01
  3.9741763e-01
 -7.3043369e-02
 -8.5568950e-02
  4.0329805e-01
 -2.3549004e-01
 -9.2954904e-01
  8.2686877e-01
 -1.9507757e-01
  1.6439585e-01
  4.1751459e-02
  1.0194770e-01
 -9.6077695e-02
 -4.6393350e-02
 -6.9788826e-01
  3.7091389e-01
 -3.4914678e-01
  4.9716379e-02
 -3.9900582e-02
  1.3075836e-01
 -6.8701208e-01
  2.4264150e-03
 -7.8771717e-04
 -7.6455265e-01
  1.0113148e-01
 -1.5606613e-01
 -3.2126877e-02
  1.7490935e-02
 -4.7479551e-03
 -2.7221766e-01
 -2.6390716e-01
  8.1782803e-02
 -6.1871491e-02
 -3.8682748e-02
 -1.1151905e-02
 -5.3678889e-02
  2.2375539e-01
  1.5855489e-02
 -1.2269726e-01
 -2.0629519e-01
 -3.6388982e-02
 -2.5068212e-01
  1.7129238e-01
  1.4126489e-01
  1.7109748e-02
 -9.4520561e-02
 -4.8289191e-02
 -1.5621224e-02
 -2.4989763e-02
  3.2605473e-02
  1.3451774e-01
  9.6518971e-02
 -4.1190913e-01
 -1.3677974e+00
 -1.6181816e-01
 -1.1710154e+00
  9.7398573e-01
  2.5585320e+00
  7.7713892e-02
 -2.0453729e-01
 -9.4562912e-01
 -4.7131729e-01
 -2.8538901e-02
  3.8990989e-02
  1.0238296e+00
  1.1962607e-02
  1.0643181e-02
 -4.8233333e-01
  4.6364865e-01
 -8.7730559e-03
 -1.1977201e-02
 -2.6558378e-01
  4.1801310e-01
  9.9685735e-01
 -2.9203493e-02
  2.7316967e-01
 -5.4724628e-01
 -1.8313751e-01
 -1.4240497e-01
 -9.3180262e-02
 -8.2522786e-01
  1.4929534e-01
  9.0862834e-01
 -1.8585280e-01
  2.9694393e-01
 -3.2713553e-01
  8.8670813e-02
 -3.8111821e-02
  2.0819053e-01
 -8.8063639e-01
 -6.4152218e-02
  6.9278020e-01
 -2.8001881e-01
  2.2403331e-01
 -1.0151626e+00
 -1.0711273e-02
  3.8829137e-02
  1.4223052e-02
  1.4133942e-01
 -1.2619752e-02
 -4.0548958e-02
  3.8111024e-02
 -2.1664055e-02
 -6.9137812e-02
 -3.2141428e-02
 -1.4526281e-01
 -1.8352263e-02
  3.7468992e-02
  3.8182953e-01
 -1.6166648e-01
 -1.7493557e-02
  1.3707056e+00
  1.6242279e-01
  8.2193621e-02
 -2.7416846e-02
 -2.8101104e-01
 -3.0260269e-02
  1.0033502e-01
 -2.5028154e-02
 -2.9768227e-03
 -1.0035619e-01
  4.3527693e-02
  9.7162992e-02
  5.4834455e-02
  9.4418032e-03
  8.4376702e-04
 -3.0922318e-02
  1.4511441e-01
  9.8120503e-02
 -1.1429615e-01
  4.1944042e-02
  5.9133008e-02
  2.2342930e-02
  8.3749495e-02
  2.0642708e-01
 -2.5333731e-02
 -6.1618965e-02
  7.4426318e-03
  9.4692320e-02
  1.2067554e-03
  1.5050092e-02
 -1.2905089e-02
 -1.1706037e-02
  1.6998297e-02
  2.9637504e-02
 -7.9566598e-02
 -1.3101730e-02
 -1.7655425e-02
 -2.2885408e-03
 -1.9576235e-02
 -4.8114590e-02
  1.0243241e-01
 -7.1913883e-02
 -1.1927515e-02
 -2.5739526e-02
 -7.8379586e-03
  1.1234371e-01
  8.7606721e-02
  1.1286493e-03
 -1.8320508e-01
 -1.0454276e-01
 -2.3675315e-01
 -2.9305289e+00
 -9.5312434e-01
 -6.5093130e-02
 -2.9599828e-01
  4.6496484e-01
  1.8291435e+00
 -1.2647150e-02
  1.0036896e+00
  2.3840429e-02
  1.7357463e-01
  1.7507544e-01
  1.7769189e-01
 -2.0856097e-02
  7.5858557e-01
  8.7547821e-01
  2.0029740e-01
 -5.1280195e-01
  6.7037135e-01
 -4.3199781e-01
  9.3575269e-02
  5.1976997e-01
  8.8951297e-02
  4.7659776e-01
  5.9509969e-01
  2.4672292e-01
 -4.4043458e-01
  2.1142329e-01
 -7.9379296e-01
  4.7328776e-01
  4.0647942e-01
 -1.1514513e-01
  1.3316581e+00
  2.6127562e-01
  3.7438107e-01
  3.3082715e-01
 -7.7936187e-02
 -6.6425192e-01
 -5.0989846e-03
 -4.5195423e-02
  2.1132624e-01
  7.7909845e-01
  7.6535547e-01
  6.8067843e-01
  1.2033284e-01
  1.6670164e-01
  1.8339565e-01
 -2.8789522e-02
  2.8315714e-01
 -5.5944774e-02
 -2.0654254e-01
 -2.7766453e-02
  2.1268468e-02
 -4.4334460e-02
  6.2220514e-01
 -2.9386697e-02
  1.4927436e+00
  1.3428161e+00
 -4.9777037e-01
 -1.1386845e-01
  9.9697167e-01
  9.3101960e-01
  2.3647981e+00
  1.2397480e+00
  1.8449942e+00
  9.1940418e-02
  7.0344967e-01
 -1.1423491e+00
  8.6611658e-01
  1.4762198e+00
 -1.0900435e+00
 -2.4235545e-02
 -2.0883380e-01
  1.1427969e-01
  2.9551715e-01
  2.7321599e+00
  1.1010990e+00
 -1.9218632e+00
 -1.6264362e+00
 -1.1573758e+00
 -2.2019831e-02
 -1.3378963e+00
 -1.1239215e+00
  9.7704865e-02
 -1.3728903e-01
 -7.2891964e-03
 -1.4855278e+00
 -2.4353230e+00
 -4.0481606e+00
 -2.4013095e+00
  2.5269991e-01
 -2.1912862e-01
  2.3849143e-02
  1.3170214e+00
  1.1953586e-01
 -5.6487364e-01
 -8.4552728e-02
 -2.4957409e+00
 -1.3378327e+00
  1.8667915e+00
 -1.4131030e+00
  9.3469366e-02
 -6.2875375e-02
  1.0364621e+00
 -9.2301595e-01
  2.4271784e-02
 -7.2349265e-02
 -1.9441451e-01
  6.4686067e-02
 -2.4610545e-01
  1.9491985e-01
 -2.2968391e-01
 -2.3801960e-01
 -1.2626112e-01
  1.8198986e+00
  9.5953959e-01
  2.6056603e-01
  1.7488873e-01
 -5.3715270e-02
  1.7078263e-01
  1.5513307e-01
  1.5099276e-02
 -2.9523069e-01
 -3.4965682e-01
  8.6124808e-01
  7.1937853e-01
 -1.9094837e-01
 -2.9855224e-01
 -8.7710798e-01
  4.2798185e-01
 -7.3043025e-01
  3.6265093e-01
  9.3289828e-01
 -2.2987608e-02
  2.2160349e-02
 -3.8944557e-02
  2.5398248e-01
  6.6425681e-02
 -3.9169824e-01
 -6.8308675e-01
  7.4106735e-01
 -1.2641902e-01
 -3.8832519e-02
 -1.1160460e-01
 -1.1185035e-02
 -9.5580414e-02
 -2.7517986e-01
 -5.5394477e-01
  2.5229445e-01
  1.6776690e-01
 -1.1238017e+00
 -7.1197766e-01
  1.3955459e-01
  4.0735677e-01
 -1.1242635e-03
 -2.3698843e+00
 -3.1596818e+00
 -3.1399164e-02
 -2.4156699e+00
 -4.2929381e-01
  3.3856306e+00
 -5.5487704e-01
 -9.4726527e-01
  8.9919575e-02
 -3.6432025e-01
  1.4352408e-01
 -6.1020474e-03
 -5.0540322e-01
  3.9180253e-02
  9.8608024e-02
  5.5354200e-02
  6.6569245e-01
 -2.7008232e-01
  5.5402551e-02
 -4.0680099e-01
 -8.6724269e-01
 -4.7762271e-02
  3.3526897e-02
  1.5464166e-01
 -4.9837701e-02
 -1.6548403e-01
  3.2393101e-01
 -4.6252644e-01
  9.9098921e-02
 -7.9017991e-01
 -8.7293208e-02
 -1.7563014e-01
 -1.2081165e+00
  3.5719655e-02
 -2.4584393e-01
  3.7320681e-02
 -5.2589338e-02
 -1.4583354e-01
 -4.3606013e-02
  5.0386962e-02
  6.4497358e-01
 -4.9810424e-02
  5.1141244e-01
 -3.1961957e-03
  3.7908904e-02
 -3.6231089e-02
  7.2141513e-02
  1.2327633e-02
  1.5879355e-01
 -1.0690441e-01
  2.7559508e-02
 -2.0232305e-02
 -1.6506432e-01
  3.9489340e-02
 -6.2205720e-01
 -1.5961947e+00
 -3.8931690e-02
  3.8276964e-01
 -7.8133252e-03
 -6.4726129e-02
 -6.9891438e-02
 -1.7381352e+00
 -6.6690311e-02
 -4.2188562e-02
  6.9174953e-02
  8.0482721e-01
  7.6311804e-02
  1.6164410e-01
 -7.7888491e-03
 -8.9634001e-02
  2.2589226e-01
  8.5811086e-02
 -2.1918203e-01
  1.7548145e-01
  5.7079709e-01
  3.5987115e-01
 -4.0401584e-03
 -5.2253958e-02
 -5.0154775e-02
  2.3965777e-01
  2.8284770e-03
  9.6715122e-02
  1.6109312e-02
  6.3967156e-01
 -1.2719390e-04
  1.9651392e-02
 -2.1016370e-01
 -1.2063393e-02
  1.2133191e-01
  2.7420463e-02
  6.6122927e-02
  1.1420243e-01
  5.4571801e-01
  6.9400094e-02
  2.7821478e-02
  1.7019109e-01
  9.3446940e-04
  2.7417552e-01
  9.0931104e-03
  6.1765846e-02
 -6.2086385e-02
 -1.3651738e-02
 -3.2876632e-01
 -3.3374947e-02
  4.9637035e-02
 -9.1265021e-03
 -5.2688725e-02
  1.6791850e-01
 -1.7973641e-01
  4.4696242e-02
 -1.0057151e-01
 -2.3167554e-01
 -9.6529666e-03
 -1.2247624e-02
  9.0645710e-03
 -4.5568934e-01
  5.5715550e-02
 -2.4916135e-02
  1.4281185e-02
 -1.5375581e-02
 -4.4823684e-02
  4.5933869e-02
 -1.4133771e-01
  1.6321154e-01
  5.5199913e-03
 -2.7031306e-02
 -8.5283499e-03
  3.3683792e-02
  2.5164849e-01
  2.7642718e-02
 -7.2507159e-04
  4.5790831e-03
 -1.1391971e-02
 -6.9638461e-02
  5.2776378e-02
  8.5906908e-02
  1.1582978e-02
  4.5655621e-03
  9.5168196e-02
  2.8844658e-01
  2.5786096e-02
 -1.5122306e-03
  4.9516843e-03
  6.5980665e-02
  2.4410093e-02
  6.1980527e-02
  4.7558017e-02
  3.9077569e-02
  2.6007826e-02
 -1.6606610e-01
 -2.0783784e-02
 -7.2106607e-03
  2.3917764e-02
  3.8172677e-02
  1.2331463e-02
 -1.8882291e-01
 -1.6380863e-02
  2.2351241e-02
 -7.7411309e-03
 -1.2390832e-01
 -1.5166827e-02
  9.9471241e-01
  1.6193254e-01
 -1.2068121e+00
  1.3237433e-01
 -6.0018640e-02
  9.8090291e-01
 -7.9246801e-01
 -4.7707295e-01
 -3.7367599e+00
 -6.2140900e-01
  5.2296358e-01
  7.6840371e-02
 -5.1735204e-02
  7.9597259e-01
  2.5226310e-01
 -1.4629182e+00
 -5.2177197e-01
  1.1127165e-01
  4.1277569e-02
  4.4751698e-01
  1.0766608e-01
  3.5641870e-01
  1.4949000e-01
  1.8020774e-01
 -8.4736697e-02
  8.0495484e-02
  2.2580841e-01
 -3.3542517e-01
  1.1011320e+00
 -1.4712034e-01
  4.7726151e-01
  2.5640690e-01
  2.0569840e-01
  3.0362064e-01
  1.4306910e-01
  1.0128063e-01
  6.4581437e-03
  3.7061691e-01
  6.6182949e-02
  1.0139708e-01
  2.3343666e-01
  3.1791180e-02
  4.8507309e-01
  1.0970234e-01
 -2.6396295e-02
  2.3188945e-02
 -5.4106444e-02
 -4.1043483e-02
  5.3253829e-02
 -1.9037846e-02
  2.1846667e-02
 -4.5609009e-02
 -1.1832764e-02
 -6.0306646e-02
  3.2535810e-02
 -1.3676070e-02
 -7.7950865e-01
 -6.9267415e-02
  2.2420340e+00
  5.5346429e-02
  3.0524549e+00
 -8.0866635e-02
  2.1300731e+00
 -9.1633074e-02
 -5.1720746e-02
  1.1980990e-01
  3.8389020e-02
 -1.7802927e-01
 -2.3298709e-02
 -5.3760562e-02
 -7.4852467e-02
 -1.0672322e-02
  2.4606433e-02
 -3.5084745e-01
 -2.4845327e-01
 -1.8291324e-03
 -4.6045002e-01
 -4.2420486e-01
 -1.0740443e+00
 -1.9931860e-01
 -2.4913940e-01
 -6.7065954e-02
 -1.5634434e-01
  9.4857335e-02
 -4.7291303e-03
 -1.8653836e-02
 -1.7131591e-02
 -7.8240603e-02
 -1.3993138e-01
 -7.0477612e-02
 -6.5454282e-02
 -1.1785290e-01
 -4.2869642e-02
 -3.5703812e-02
 -4.4136724e-01
  2.1554396e-02
 -3.5500759e-04
 -3.6851339e-02
  5.8159856e-03
  1.0483623e-01
  5.5737190e-02
  4.6878215e-03
  6.5793902e-02
 -4.6310864e-02
 -5.6443788e-02
 -2.1969406e-02
  2.3713611e-02
 -1.1664940e-01
  7.0600852e-02
  4.4837084e-01
 -8.9757681e-02
 -3.7656498e-01
 -6.2624700e-02
  4.4689695e-03
 -8.3862595e-02
 -2.0511851e-02
  1.5764087e-02
  2.3013869e-01
 -2.4940711e-02
  3.0009087e-02
  3.9379490e-03
 -1.5759923e-02
 -1.9539455e-02
 -6.5997750e-02
 -2.3752457e-02
 -6.1479140e-02
  8.6982884e-02
 -1.1459384e-01
  1.7346376e-01
  1.1008218e-01
  1.0652673e-02
  5.1950060e-02
  1.5144971e-01
 -4.6231229e-02
 -3.1173695e-02
  3.0057158e-02
  1.9206038e-02
  1.9442590e-03
  1.4534791e-01
  7.3638603e-02
  1.1966553e-01
  1.1759893e-01
  4.8610374e-02
  2.8064463e-02
  1.3461851e-01
  8.8430107e-02
  9.3836822e-02
 -4.4676024e-02
  3.3494670e-02
  4.1986298e-02
 -2.5036676e-02
 -1.3270685e-01
  5.6947127e-02
 -5.9762433e-02
 -1.0290030e-01
 -4.4905461e-02
 -1.9449486e-01
  3.2759778e-02
  5.8334291e-02
 -4.0630728e-02
 -2.4711661e-02
 -1.4887545e-01
 -1.9361858e-01
 -1.1358687e+00
 -8.1741381e-01
  2.0545943e+00
 -8.6500907e-01
 -1.8092859e-01
 -1.1029448e-01
  1.6125929e-01
  6.9580227e-01
 -3.1895138e-02
  4.5487490e-01
  2.4983458e-01
  2.2520033e-01
  6.5456802e-01
 -3.9805248e-02
 -1.4087611e-01
 -9.7287856e-02
  4.1746470e-01
 -2.1056038e-01
  3.4412247e-01
  1.0891291e-01
 -3.8765374e-01
 -1.1342213e+00
 -5.2768934e-01
 -2.0530036e-01
 -5.0792705e-02
  8.1604022e-01
  2.0633002e-01
  3.1475842e-01
 -2.3538668e-02
 -9.0490453e-02
 -3.5578016e-02
 -4.0089831e-02
 -8.0695532e-02
  7.4598058e-03
  3.0750689e-01
 -1.8156053e-02
  1.3488603e-01
 -2.5182068e-01
 -1.2735852e+00
  3.0317960e-02
 -2.2518996e-02
 -7.0845330e-01
  1.8476710e-01
  3.4353420e-01
  1.7658884e-02
 -6.5377876e-02
  1.2821854e-03
  4.2062667e-01
 -6.8099931e-02
  4.3075196e-02
  6.5241538e-02
 -2.6348156e-01
  2.2032661e-02
  5.8321828e-01
  2.1222758e+00
  9.9281383e-01
  1.1892103e-01
 -8.2417257e-02
  3.0636808e-03
 -3.4569088e-01
 -2.2406499e+00
 -8.9937991e-01
 -2.6597967e-03
  2.8826520e-03
 -2.4434347e-02
  1.4572924e-01
  1.6748120e+00
  4.1918296e-02
 -3.2037064e-02
 -2.3643106e-01
 -3.0366488e-02
 -2.6518704e-02
 -9.7029723e-02
  1.7343991e-01
  1.3645396e-01
  3.1842925e-02
  9.1276348e-02
 -3.3122793e-02
  1.9925099e-02
 -1.7743935e-01
  4.7861192e-01
 -2.1686116e-01
  1.0891240e-03
  1.8058412e-01
  2.4907012e-01
 -3.3430737e-02
 -1.2317995e+00
  3.3906236e-01
 -4.7956267e-03
  1.1553705e-01
  7.6583624e-02
 -8.6496780e-03
  4.5878094e-02
  8.6002129e-01
  5.2037924e-03
  1.7483768e-01
  1.7608210e-01
  8.9526623e-02
 -1.4253115e-02
  1.7974202e-01
 -6.6990718e-02
 -2.0401487e-02
 -1.6119497e-02
  5.9038736e-02
 -2.9772910e-01
  2.1030283e-02
 -4.3474630e-02
 -1.9507197e+00
  1.2056643e+00
 -2.2934351e+00
 -6.1154580e-01
  2.5559732e-01
  5.8468026e-01
  7.7629352e-01
 -4.5283675e+00
  1.3241911e+00
  9.3989380e-02
 -1.1633254e-01
 -2.1695894e-01
 -1.5780892e-02
  5.0961006e-01
 -1.1832987e+00
  3.0194253e-01
  4.5060363e-01
 -1.4085767e+00
  4.4978070e-01
  7.2905101e-02
  6.7469150e-01
 -1.7934013e-02
 -7.1265720e-02
  3.7876606e-01
 -8.7833685e-01
 -2.8019089e-01
  8.3518761e-01
  2.4080548e-02
 -1.0126251e-01
 -4.3289028e-02
  5.4876775e-01
 -2.7178640e+00
  3.4735587e-01
 -2.6435149e-01
  1.1449603e+00
 -8.1216276e-02
 -1.1768437e-02
 -2.4518879e-02
  9.5409805e-01
  6.3732956e-03
 -1.2294417e-01
  2.0185828e-01
 -8.9607340e-01
  3.0333596e-01
 -6.0311477e-03
 -2.5349152e-01
 -3.5139948e-02
 -8.5801054e-03
 -2.5995975e-02
  1.2297200e-01
  7.8381971e-02
  1.9559664e-01
  6.1644133e-02
 -1.4596538e-02
  1.3192712e-01
 -3.4658393e-01
  4.8628770e-04
 -4.8248647e-03
  4.0984415e-02
 -2.2880830e-01
  2.2099663e-02
  6.9377786e-03
 -1.9049738e-02
  5.2715536e-02
  4.1270114e-02
 -2.1654600e-02
  6.2095760e-03
 -1.1275596e-01
  1.6169475e-01
 -4.4544535e-03
  1.0704022e-01
 -2.9726904e-02
  1.0697758e-01
  7.7959783e-02
  6.6442467e-02
  1.3971244e-01
  7.8395769e-02
 -2.0887490e-02
 -1.2409895e-01
  2.8613320e-02
  4.5011133e-02
 -1.0442718e-02
  9.3431197e-02
  5.2484274e-02
  3.9396163e-02
  2.6711248e-02
 -2.3096474e-03
 -2.2716964e-02
 -1.4771488e-02
  4.1084979e-02
  3.1650636e-02
  8.1279725e-02
  8.6264350e-02
  7.2942309e-02
  3.1269929e-01
  1.0840487e-01
 -4.9725780e-03
 -1.3907650e-02
 -3.8085789e-03
 -4.5218691e-02
 -1.1592077e-01
 -7.5160094e-02
  6.5541632e-02
  7.2475045e-04
 -3.2880407e-02
 -1.7535411e-02
 -1.3628772e-02
 -4.4937178e-02
 -4.4385526e-02
 -6.4747858e-01
  2.7501267e-01
  9.3861550e-01
 -1.4983990e+00
  3.9635697e-01
 -1.8849444e-01
  1.5414606e-01
  9.7741878e-01
 -9.2119403e-02
 -2.7900884e-01
 -1.5615952e-02
 -1.6690391e-01
 -1.2719753e-01
 -5.3569684e-03
 -5.8180028e-01
 -3.2787141e-01
 -7.8626983e-03
 -5.3618919e-02
  5.8195175e-04
 -1.2818582e-01
 -7.9206395e-01
 -2.9307339e-01
 -1.5786757e-01
 -7.9113626e-01
  3.7429187e-01
  3.0297976e-02
 -1.9457912e-02
  3.3874014e-01
 -6.9167727e-01
 -1.2156682e+00
 -2.6511201e-01
  1.8777065e-01
 -1.1597292e+00
 -9.8609515e-03
 -3.1161311e-04
 -7.1083802e-01
  8.1581101e-02
 -1.0222678e+00
 -3.4742242e-01
 -4.0395716e-01
  7.1502156e-03
 -1.3254710e-02
 -1.5533488e-03
 -5.0208706e-01
  3.7195738e-02
 -7.6580316e-02
 -6.4929631e-03
  1.5581701e-02
 -2.3877625e-01
  1.5586715e-02
 -9.8316252e-02
  4.7687218e-02
 -2.6264384e-01
  2.6156813e-01
  1.5687247e-01
 -1.2095203e+00
  1.3657930e+00
  1.3417550e+00
  2.6393187e-01
  1.4328089e-01
 -5.3395051e-01
 -1.8247058e+00
 -3.1910393e-02
  7.4972235e-02
  1.4660366e-01
 -1.0098222e-02
  2.2034146e-01
 -8.1934258e-02
  1.7086531e-01
  3.0920479e-01
  4.8069607e-02
  3.1183124e-02
 -2.6358098e-02
  4.5781534e-02
  1.7745506e-02
  2.3460755e-01
 -2.5130951e-01
 -4.0513611e-01
 -1.4302711e-01
  9.6780375e-02
  9.6645519e-02
  3.3606231e-02
  1.8867813e-02
  4.5603007e-02
  6.6750914e-01
 -1.4901185e-01
  1.5995267e-01
  2.6727319e-01
  1.7036904e-02
 -9.0640493e-02
 -5.5004593e-02
  5.3781968e-02
 -3.2947615e-02
 -6.3164473e-02
 -1.1628129e-01
  2.7117195e-02
  4.9478033e-01
 -4.9162611e-02
 -1.0441277e-02
 -9.6273176e-02
 -4.2727061e-02
  1.6996345e-02
